<?xml version="1.0"?>
<opencv_storage>
<!-- Created using Computer Vision System Toolbox(tm) for MATLAB(R) -->
<!-- Version 9.2.0.538062 (R2017a) -->
<!-- Compatible with OpenCV 3.1 -->
<cascade>
  <stageType>BOOST</stageType>
  <featureType>LBP</featureType>
  <height>20</height>
  <width>20</width>
  <stageParams>
    <boostType>GAB</boostType>
    <minHitRate>9.9900001287460327e-01</minHitRate>
    <maxFalseAlarm>1.0000000149011612e-01</maxFalseAlarm>
    <weightTrimRate>9.4999999999999996e-01</weightTrimRate>
    <maxDepth>1</maxDepth>
    <maxWeakCount>100</maxWeakCount></stageParams>
  <featureParams>
    <maxCatCount>256</maxCatCount>
    <featSize>1</featSize></featureParams>
  <stageNum>11</stageNum>
  <stages>
    <!-- stage 0 -->
    <_>
      <maxWeakCount>7</maxWeakCount>
      <stageThreshold>-1.4437744617462158e+00</stageThreshold>
      <weakClassifiers>
        <_>
          <internalNodes>
            0 -1 127 -168558593 -248382541 -266325 -139264222 -989901313
            -1778917377 -838923249 -28757</internalNodes>
          <leafValues>
            -9.3478184938430786e-01 7.2462534904479980e-01</leafValues></_>
        <_>
          <internalNodes>
            0 -1 116 -11014273 -248400109 -268456017 -290080985
            -2072736513 -176816138 -2130870033 -268456257</internalNodes>
          <leafValues>
            -8.6458212137222290e-01 6.3269090652465820e-01</leafValues></_>
        <_>
          <internalNodes>
            0 -1 61 1879011119 851181567 -269553746 -1296367762
            1476351871 1895266301 -43692 -252381200</internalNodes>
          <leafValues>
            -7.6535815000534058e-01 6.3961595296859741e-01</leafValues></_>
        <_>
          <internalNodes>
            0 -1 169 -808165515 -1359020034 -1048577 -286064712
            234823543 -318767105 -16521 -1460665294</internalNodes>
          <leafValues>
            -6.8813830614089966e-01 6.6433024406433105e-01</leafValues></_>
        <_>
          <internalNodes>
            0 -1 65 721366799 602914679 -285212690 -289472666 1728051063
            1685550967 -285245492 -520814763</internalNodes>
          <leafValues>
            -6.5731203556060791e-01 6.3094770908355713e-01</leafValues></_>
        <_>
          <internalNodes>
            0 -1 150 456012799 176865022 -73731 1056897790 1073690556
            -1073774594 2144291676 -1146884</internalNodes>
          <leafValues>
            -6.3146167993545532e-01 5.9056574106216431e-01</leafValues></_>
        <_>
          <internalNodes>
            0 -1 110 -291737743 773726079 -131 -1073758209 -537428169
            -1073790977 -167826315 -1376319436</internalNodes>
          <leafValues>
            -5.7582920789718628e-01 5.8757245540618896e-01</leafValues></_></weakClassifiers></_>
    <!-- stage 1 -->
    <_>
      <maxWeakCount>12</maxWeakCount>
      <stageThreshold>-1.7008039951324463e+00</stageThreshold>
      <weakClassifiers>
        <_>
          <internalNodes>
            0 -1 128 -1 -34209929 -16385 -8964331 -1997623297 -33571841
            -1392537601 -1</internalNodes>
          <leafValues>
            -8.1442844867706299e-01 5.3147864341735840e-01</leafValues></_>
        <_>
          <internalNodes>
            0 -1 18 -196610 -11452635 -1073827858 -49345 -721420289
            1433747327 671067887 2147434495</internalNodes>
          <leafValues>
            -8.7467044591903687e-01 3.2843095064163208e-01</leafValues></_>
        <_>
          <internalNodes>
            0 -1 98 1565900799 -1288568909 -272699473 -80609493
            1157615071 -214708225 -838873905 -4433</internalNodes>
          <leafValues>
            -6.6419577598571777e-01 5.7699936628341675e-01</leafValues></_>
        <_>
          <internalNodes>
            0 -1 77 -772024374 -235143181 -327797 -223608902 -570565161
            1374944767 -28673 330862506</internalNodes>
          <leafValues>
            -7.9675608873367310e-01 4.0533930063247681e-01</leafValues></_>
        <_>
          <internalNodes>
            0 -1 85 -897831308 -1402994817 -32961 -1124139011
            -1090633923 -32771 -98507 1009807668</internalNodes>
          <leafValues>
            -8.3489829301834106e-01 3.5846608877182007e-01</leafValues></_>
        <_>
          <internalNodes>
            0 -1 41 783253014 540999615 -33624084 -286326786 1333728381
            536313855 2012620628 1744468606</internalNodes>
          <leafValues>
            -7.7808409929275513e-01 3.5003226995468140e-01</leafValues></_>
        <_>
          <internalNodes>
            0 -1 207 490305301 340115319 -147527 -1174405634 -8388611
            -1344421889 -1091633160 -1460740408</internalNodes>
          <leafValues>
            -5.5106317996978760e-01 5.8987796306610107e-01</leafValues></_>
        <_>
          <internalNodes>
            0 -1 88 -280625153 -14155969 -301994001 -5521489 -1795817609
            1970765695 -2063692561 -65361</internalNodes>
          <leafValues>
            -5.3503990173339844e-01 5.9501862525939941e-01</leafValues></_>
        <_>
          <internalNodes>
            0 -1 78 1073692458 984350702 -335618098 -1963261956
            2080339837 553517054 -151030444 552924644</internalNodes>
          <leafValues>
            -7.9916638135910034e-01 4.0849491953849792e-01</leafValues></_>
        <_>
          <internalNodes>
            0 -1 155 -1493250060 -289476610 -16777218 -1427963908
            782188401 -1073741825 -352321546 721256439</internalNodes>
          <leafValues>
            -7.9399001598358154e-01 3.5235434770584106e-01</leafValues></_>
        <_>
          <internalNodes>
            0 -1 131 -1509971073 1903426359 -539248077 -1525419215
            1171211742 620093431 -855702274 -805445753</internalNodes>
          <leafValues>
            -6.3052940368652344e-01 4.6787163615226746e-01</leafValues></_>
        <_>
          <internalNodes>
            0 -1 52 -2037903425 -286081110 -134365185 -546013466
            1803359163 -393734 -706689 -763039</internalNodes>
          <leafValues>
            -5.5488443374633789e-01 5.2871155738830566e-01</leafValues></_></weakClassifiers></_>
    <!-- stage 2 -->
    <_>
      <maxWeakCount>13</maxWeakCount>
      <stageThreshold>-1.8080787658691406e+00</stageThreshold>
      <weakClassifiers>
        <_>
          <internalNodes>
            0 -1 145 -33554433 -49086851 -3015201 -13385925 -843211265
            -8705 -839152481 -67121729</internalNodes>
          <leafValues>
            -8.5933291912078857e-01 3.9846670627593994e-01</leafValues></_>
        <_>
          <internalNodes>
            0 -1 96 -131075 -185204745 -151739 2004694901 -1929400385
            -2131247105 -1342198209 1073725439</internalNodes>
          <leafValues>
            -7.3267418146133423e-01 4.2009955644607544e-01</leafValues></_>
        <_>
          <internalNodes>
            0 -1 12 -139674388 -6029313 -134230865 -12845122 -168430338
            -176687105 -704674716 2000618685</internalNodes>
          <leafValues>
            -8.4718084335327148e-01 3.8075771927833557e-01</leafValues></_>
        <_>
          <internalNodes>
            0 -1 99 -312094724 -47087821 -1103351897 -214699229
            -1000886273 -713687051 -924022546 -134353985</internalNodes>
          <leafValues>
            -7.2692084312438965e-01 4.2452698945999146e-01</leafValues></_>
        <_>
          <internalNodes>
            0 -1 55 -1090541820 -290488481 -24117483 -1126703305
            2145349493 2130706043 -1074956459 1617262165</internalNodes>
          <leafValues>
            -7.0508790016174316e-01 3.8531878590583801e-01</leafValues></_>
        <_>
          <internalNodes>
            0 -1 109 -1729048616 1090191353 -67371037 -88408390
            -805306413 -989986817 -536883409 280173563</internalNodes>
          <leafValues>
            -8.1792062520980835e-01 3.0904099345207214e-01</leafValues></_>
        <_>
          <internalNodes>
            0 -1 66 1257955236 303755256 -268501244 -1073811650
            880795381 2130673535 1073698068 1743945044</internalNodes>
          <leafValues>
            -7.6144570112228394e-01 3.1597861647605896e-01</leafValues></_>
        <_>
          <internalNodes>
            0 -1 194 1427960660 1026700661 2139094845 804257714
            1073739733 536870647 -134283268 803929316</internalNodes>
          <leafValues>
            -6.6140586137771606e-01 3.7027534842491150e-01</leafValues></_>
        <_>
          <internalNodes>
            0 -1 100 787117894 738164607 -98466 788430718 -285229185
            -1358987521 2146369396 753790932</internalNodes>
          <leafValues>
            -7.0872706174850464e-01 3.2271927595138550e-01</leafValues></_>
        <_>
          <internalNodes>
            0 -1 24 -491716 2130261802 -18026769 -285329537 -134744271
            -143311595 620017149 1073690621</internalNodes>
          <leafValues>
            -7.5288671255111694e-01 3.1765055656433105e-01</leafValues></_>
        <_>
          <internalNodes>
            0 -1 118 2013265851 1911797758 -344133688 -1281163342
            1171247067 1409142767 -1912665020 -172097562</internalNodes>
          <leafValues>
            -6.1595880985260010e-01 3.6289975047111511e-01</leafValues></_>
        <_>
          <internalNodes>
            0 -1 107 -1587814141 -687870259 -418726645 -322082285
            -496786046 -139988261 -1494133734 -1068255933</internalNodes>
          <leafValues>
            -5.0018435716629028e-01 4.8559156060218811e-01</leafValues></_>
        <_>
          <internalNodes>
            0 -1 21 -289016204 1981939579 -25178515 -1354760769
            -177081178 1937110903 -671619972 993989109</internalNodes>
          <leafValues>
            -7.3191624879837036e-01 3.1893190741539001e-01</leafValues></_></weakClassifiers></_>
    <!-- stage 3 -->
    <_>
      <maxWeakCount>14</maxWeakCount>
      <stageThreshold>-1.4254837036132812e+00</stageThreshold>
      <weakClassifiers>
        <_>
          <internalNodes>
            0 -1 89 -33554433 -134234330 -147497 -17649 -168820737
            -135170185 -2063815201 -513</internalNodes>
          <leafValues>
            -7.7498447895050049e-01 3.0692166090011597e-01</leafValues></_>
        <_>
          <internalNodes>
            0 -1 113 -1082278977 -402817153 -4348635 2013083445
            -1896962049 16723967 -1342239041 -1073758305</internalNodes>
          <leafValues>
            -5.8844572305679321e-01 4.3345969915390015e-01</leafValues></_>
        <_>
          <internalNodes>
            0 -1 30 16416971 -52232230 -523816257 -35742260 311493119
            -268678720 465521135 -9145020</internalNodes>
          <leafValues>
            -5.5090665817260742e-01 4.9095800518989563e-01</leafValues></_>
        <_>
          <internalNodes>
            0 -1 213 286765849 455838653 329716533 -1610772503 -73565271
            -1342243110 -1378027316 -1462763812</internalNodes>
          <leafValues>
            -4.5704624056816101e-01 5.6294333934783936e-01</leafValues></_>
        <_>
          <internalNodes>
            0 -1 11 -407900378 -289406978 -4882640 -1427178585 -2210
            -2561 -1225139 1895658605</internalNodes>
          <leafValues>
            -6.3057023286819458e-01 4.0219146013259888e-01</leafValues></_>
        <_>
          <internalNodes>
            0 -1 119 924827623 -180093689 -1530010465 -1078217937
            -1512836211 -1272848458 217047259 -34217273</internalNodes>
          <leafValues>
            -5.7120466232299805e-01 4.5295926928520203e-01</leafValues></_>
        <_>
          <internalNodes>
            0 -1 74 -68815380 -407396469 -268963857 -281839313
            -705826945 1970798079 -587873105 389481645</internalNodes>
          <leafValues>
            -7.8171563148498535e-01 3.3213761448860168e-01</leafValues></_>
        <_>
          <internalNodes>
            0 -1 58 180658942 2002665437 -822061057 -76592 1942688767
            -1342609440 -480570631 -26184368</internalNodes>
          <leafValues>
            -6.0741859674453735e-01 4.1929984092712402e-01</leafValues></_>
        <_>
          <internalNodes>
            0 -1 81 -469811281 603182827 -1617625284 -1193618794
            -671090695 821885853 -542173740 -654445068</internalNodes>
          <leafValues>
            -4.9509900808334351e-01 5.1751971244812012e-01</leafValues></_>
        <_>
          <internalNodes>
            0 -1 138 -570426377 405086415 -1157304752 332014158
            1565138064 767098285 -1383092359 -268698235</internalNodes>
          <leafValues>
            -4.3573045730590820e-01 5.6423699855804443e-01</leafValues></_>
        <_>
          <internalNodes>
            0 -1 160 -1394302665 -34285577 -1144593089 -1888329673
            -1937437762 -134871585 -1980821825 -558751945</internalNodes>
          <leafValues>
            -6.4351928234100342e-01 3.7826901674270630e-01</leafValues></_>
        <_>
          <internalNodes>
            0 -1 172 1852747526 -823329812 1599755645 -1411417167
            -33756239 953351637 -1394774147 11628628</internalNodes>
          <leafValues>
            -7.1996510028839111e-01 3.1193462014198303e-01</leafValues></_>
        <_>
          <internalNodes>
            0 -1 135 -1495370762 109865912 -380178084 777701370
            524424240 805273019 1654272748 -1443203404</internalNodes>
          <leafValues>
            -7.0367437601089478e-01 3.1218111515045166e-01</leafValues></_>
        <_>
          <internalNodes>
            0 -1 15 41462456 1541366410 1259096366 -142543296 737346442
            2135823360 609487645 -11446511</internalNodes>
          <leafValues>
            -5.8824282884597778e-01 3.6714521050453186e-01</leafValues></_></weakClassifiers></_>
    <!-- stage 4 -->
    <_>
      <maxWeakCount>21</maxWeakCount>
      <stageThreshold>-1.8081948757171631e+00</stageThreshold>
      <weakClassifiers>
        <_>
          <internalNodes>
            0 -1 148 -33554433 -143392841 -1610616833 -46944469
            -730345985 -34079745 -838889729 -4209</internalNodes>
          <leafValues>
            -8.2331472635269165e-01 2.2934663295745850e-01</leafValues></_>
        <_>
          <internalNodes>
            0 -1 165 -2014376137 -1401471177 -1342230529 -559435998
            -50856460 -856293417 -386027820 -318781788</internalNodes>
          <leafValues>
            -7.0636016130447388e-01 3.3254343271255493e-01</leafValues></_>
        <_>
          <internalNodes>
            0 -1 161 -25722889 720568255 -144 1051656062 1610560885
            -1610678533 -6924 -4259846</internalNodes>
          <leafValues>
            -6.1595624685287476e-01 4.1720196604728699e-01</leafValues></_>
        <_>
          <internalNodes>
            0 -1 130 -1610657932 -1078050818 -536873475 1035811260
            -1073807364 1610608637 -268538371 -1363476484</internalNodes>
          <leafValues>
            -6.3753306865692139e-01 3.4581422805786133e-01</leafValues></_>
        <_>
          <internalNodes>
            0 -1 175 -2101367233 3301375 -268439747 -29737158 1559692789
            -1107428457 -1216459136 -69942</internalNodes>
          <leafValues>
            -5.1349550485610962e-01 3.6435583233833313e-01</leafValues></_>
        <_>
          <internalNodes>
            0 -1 69 1517748222 458948591 -719406144 -82002 2046656164
            1073635325 -1746960402 805270142</internalNodes>
          <leafValues>
            -5.8448964357376099e-01 3.0135402083396912e-01</leafValues></_>
        <_>
          <internalNodes>
            0 -1 192 -44065008 1073454079 -582496772 1071584222
            2147352229 -1107363978 -1050711 44531423</internalNodes>
          <leafValues>
            -6.0663229227066040e-01 2.7589026093482971e-01</leafValues></_>
        <_>
          <internalNodes>
            0 -1 178 -424990957 -295327753 -545392641 -84585613
            -286266511 -835719337 -201327626 -126421417</internalNodes>
          <leafValues>
            -5.0649344921112061e-01 3.3117365837097168e-01</leafValues></_>
        <_>
          <internalNodes>
            0 -1 57 -387193600 -587215113 -586743857 -1076101537
            -18350917 1560274917 -3678677 1079240294</internalNodes>
          <leafValues>
            -5.6391716003417969e-01 2.8536286950111389e-01</leafValues></_>
        <_>
          <internalNodes>
            0 -1 159 -545274129 -370180866 -1805717162 2014379502
            -206834837 -1894850594 1427174626 -1216941673</internalNodes>
          <leafValues>
            -3.9586132764816284e-01 3.8740921020507813e-01</leafValues></_>
        <_>
          <internalNodes>
            0 -1 9 -991114578 2063511548 -1149956289 -92995594
            2140830271 2079817659 -1076142261 905410422</internalNodes>
          <leafValues>
            -5.9427064657211304e-01 2.5434061884880066e-01</leafValues></_>
        <_>
          <internalNodes>
            0 -1 191 -608260344 -1229230096 -1108359172 -1078084105
            2105404892 524155357 -1090658820 955644668</internalNodes>
          <leafValues>
            -5.7198286056518555e-01 2.2517295181751251e-01</leafValues></_>
        <_>
          <internalNodes>
            0 -1 73 1150438946 -288137494 -1877238755 -350234603
            -289709498 -13897902 -165165169 -265042414</internalNodes>
          <leafValues>
            -4.9671956896781921e-01 2.5804790854454041e-01</leafValues></_>
        <_>
          <internalNodes>
            0 -1 142 -1073842671 -1470653473 -637799461 -1110558243
            -33559691 -1073751103 -1124628432 -1474304903</internalNodes>
          <leafValues>
            -4.9404296278953552e-01 2.7516666054725647e-01</leafValues></_>
        <_>
          <internalNodes>
            0 -1 179 -415555029 1332201775 -1705514580 1881219440
            -1144000646 -1937077177 -740493322 -161286433</internalNodes>
          <leafValues>
            -3.9988845586776733e-01 3.1416648626327515e-01</leafValues></_>
        <_>
          <internalNodes>
            0 -1 16 -1426715124 -300039609 -571852304 2077915966
            2111321241 -1170974682 1004815971 1299214135</internalNodes>
          <leafValues>
            -6.2602967023849487e-01 2.1292665600776672e-01</leafValues></_>
        <_>
          <internalNodes>
            0 -1 184 -1090666497 -270120709 -235476227 2071577596
            -1048840198 -679903361 1996440983 -806428687</internalNodes>
          <leafValues>
            -3.2184782624244690e-01 4.1276738047599792e-01</leafValues></_>
        <_>
          <internalNodes>
            0 -1 122 1977406682 324792538 860280340 685424652 -680189445
            197088157 -86626420 2105536045</internalNodes>
          <leafValues>
            -4.9745523929595947e-01 2.6369324326515198e-01</leafValues></_>
        <_>
          <internalNodes>
            0 -1 195 -1362606415 -419771170 -1013206573 -16033922
            -1895155235 2039615886 1328642011 -72706627</internalNodes>
          <leafValues>
            -3.6920383572578430e-01 3.3967748284339905e-01</leafValues></_>
        <_>
          <internalNodes>
            0 -1 29 2130619426 785559446 -1078067220 -1359036674
            -9476577 2147163869 -43780236 1979544695</internalNodes>
          <leafValues>
            -6.5449368953704834e-01 2.0165902376174927e-01</leafValues></_>
        <_>
          <internalNodes>
            0 -1 154 -1427443952 -1963003918 -430969606 1257963259
            -546505865 -1879589377 -134873225 661912443</internalNodes>
          <leafValues>
            -6.0772103071212769e-01 1.7257888615131378e-01</leafValues></_></weakClassifiers></_>
    <!-- stage 5 -->
    <_>
      <maxWeakCount>35</maxWeakCount>
      <stageThreshold>-1.8378142118453979e+00</stageThreshold>
      <weakClassifiers>
        <_>
          <internalNodes>
            0 -1 147 -69207057 -11165897 1653341663 2112208183
            -389545989 -35413 -1462784065 -1053777</internalNodes>
          <leafValues>
            -7.8882223367691040e-01 -6.1684671789407730e-02</leafValues></_>
        <_>
          <internalNodes>
            0 -1 163 -536923233 842447679 -105401473 -1230863845
            -798517835 -19732309 -393494348 -338761554</internalNodes>
          <leafValues>
            -5.4322481155395508e-01 2.4367339909076691e-01</leafValues></_>
        <_>
          <internalNodes>
            0 -1 82 -1695708474 -704649 -20960 1073692533 -1929461938
            16121855 -1073758723 1073610750</internalNodes>
          <leafValues>
            -7.2947341203689575e-01 2.1025797724723816e-01</leafValues></_>
        <_>
          <internalNodes>
            0 -1 83 585475874 -1209608895 -12451969 -1056610 1644032899
            -206439695 -352605234 -521865230</internalNodes>
          <leafValues>
            -4.9980142712593079e-01 2.8209406137466431e-01</leafValues></_>
        <_>
          <internalNodes>
            0 -1 76 -1970216 -410911811 -18153502 -250355889 -105195273
            -706216240 -4534401 331320205</internalNodes>
          <leafValues>
            -6.4739120006561279e-01 2.1049365401268005e-01</leafValues></_>
        <_>
          <internalNodes>
            0 -1 164 -637949472 2142185209 -6408818 -914674673 -53178698
            2145382557 -588714505 1139531211</internalNodes>
          <leafValues>
            -4.6615692973136902e-01 2.7660742402076721e-01</leafValues></_>
        <_>
          <internalNodes>
            0 -1 108 -855203294 -3207448 -288384054 -1450186057
            -306764335 -1076371704 -289028365 12707311</internalNodes>
          <leafValues>
            -6.1506497859954834e-01 2.1600933372974396e-01</leafValues></_>
        <_>
          <internalNodes>
            0 -1 196 2001092676 442496921 2110779792 2133163738
            -1092439568 -1158052876 -304709912 -1433862162</internalNodes>
          <leafValues>
            -4.5136117935180664e-01 2.5637131929397583e-01</leafValues></_>
        <_>
          <internalNodes>
            0 -1 158 -2018524274 -1142647840 856707560 932681410
            1236060980 2073754077 1787300553 1433265900</internalNodes>
          <leafValues>
            -5.8264291286468506e-01 1.9160713255405426e-01</leafValues></_>
        <_>
          <internalNodes>
            0 -1 126 -1381554686 -307144177 -317482553 -1882222353
            -1956705467 -275887457 1338801079 -2140113985</internalNodes>
          <leafValues>
            -4.2832410335540771e-01 2.7092874050140381e-01</leafValues></_>
        <_>
          <internalNodes>
            0 -1 8 -438514950 1673931738 -872363281 -574179608 120070622
            -385417390 1397316547 191196786</internalNodes>
          <leafValues>
            -4.6803617477416992e-01 2.4155028164386749e-01</leafValues></_>
        <_>
          <internalNodes>
            0 -1 68 1289665768 907817112 -129437616 -278499307
            2076970992 752577112 1508529428 1073736662</internalNodes>
          <leafValues>
            -6.2085008621215820e-01 1.7583653330802917e-01</leafValues></_>
        <_>
          <internalNodes>
            0 -1 119 1360982581 1628954302 -1421661217 -7228534
            -520003093 -449449832 -315502869 -107887898</internalNodes>
          <leafValues>
            -4.0262439846992493e-01 2.6843866705894470e-01</leafValues></_>
        <_>
          <internalNodes>
            0 -1 87 -810222724 2008546655 -1426347220 1986472842
            -2050308537 355947261 167227015 905915898</internalNodes>
          <leafValues>
            -7.4818813800811768e-01 1.5167123079299927e-01</leafValues></_>
        <_>
          <internalNodes>
            0 -1 146 -125931809 57263932 -1510723543 809466729
            -806454755 79330658 -1258515457 -5603393</internalNodes>
          <leafValues>
            -3.1271821260452271e-01 3.8280269503593445e-01</leafValues></_>
        <_>
          <internalNodes>
            0 -1 90 -17367788 -1344734266 1209040896 1284035092
            2047170245 2141873038 1191906680 1725034493</internalNodes>
          <leafValues>
            -5.0498294830322266e-01 2.2393491864204407e-01</leafValues></_>
        <_>
          <internalNodes>
            0 -1 224 -152763806 -649066240 538640385 1362609870
            -2138323904 822460428 950723242 -888176417</internalNodes>
          <leafValues>
            -2.9128560423851013e-01 3.8207778334617615e-01</leafValues></_>
        <_>
          <internalNodes>
            0 -1 134 440483256 -494972468 -530493221 -639171576
            -1977359670 -1300131319 1082379971 10092696</internalNodes>
          <leafValues>
            -4.2206168174743652e-01 2.7166485786437988e-01</leafValues></_>
        <_>
          <internalNodes>
            0 -1 215 1502581688 1376061082 403281696 -1274434584
            -87838199 126597328 2035085042 -1998201364</internalNodes>
          <leafValues>
            -4.0233680605888367e-01 2.6012828946113586e-01</leafValues></_>
        <_>
          <internalNodes>
            0 -1 133 -304093396 -2146975315 -2091654353 -1124830959
            177988414 279349425 -536114482 -110894266</internalNodes>
          <leafValues>
            -4.2170932888984680e-01 2.4722225964069366e-01</leafValues></_>
        <_>
          <internalNodes>
            0 -1 183 -1826466125 -874149033 224583457 2068254524
            99073807 2096463868 1707538418 -80809265</internalNodes>
          <leafValues>
            -2.5866058468818665e-01 4.2108315229415894e-01</leafValues></_>
        <_>
          <internalNodes>
            0 -1 203 -207588626 2069323848 1494403321 298287788
            238754034 1791110912 -1306612035 -606304630</internalNodes>
          <leafValues>
            -2.7828904986381531e-01 3.9530938863754272e-01</leafValues></_>
        <_>
          <internalNodes>
            0 -1 106 517051744 -780095063 -1184643161 -771068270
            -844367951 -1015549091 -1910196768 1401602186</internalNodes>
          <leafValues>
            -6.2015736103057861e-01 1.9092608988285065e-01</leafValues></_>
        <_>
          <internalNodes>
            0 -1 54 -324979200 -92793749 -1498478370 -1784162649
            532367150 1827307711 -1178115490 807859796</internalNodes>
          <leafValues>
            -5.9734308719635010e-01 1.7371581494808197e-01</leafValues></_>
        <_>
          <internalNodes>
            0 -1 212 1896471813 522426606 -602898988 299227035
            1598491179 -1729630536 1332323305 248642672</internalNodes>
          <leafValues>
            -3.8895583152770996e-01 2.8644019365310669e-01</leafValues></_>
        <_>
          <internalNodes>
            0 -1 125 1567251711 -1112001328 1379931741 1934698189
            -1072406375 -1406467433 25330651 -1683451681</internalNodes>
          <leafValues>
            -1.9679068028926849e-01 5.7036495208740234e-01</leafValues></_>
        <_>
          <internalNodes>
            0 -1 153 1760087840 148496516 -759047172 704209552
            -388109872 1066715931 -522401711 542466898</internalNodes>
          <leafValues>
            -7.1843779087066650e-01 1.6066899895668030e-01</leafValues></_>
        <_>
          <internalNodes>
            0 -1 43 -607792952 -870632246 -1638416129 530339285
            270726042 -804092351 387077763 -547724730</internalNodes>
          <leafValues>
            -3.1386595964431763e-01 3.3942717313766479e-01</leafValues></_>
        <_>
          <internalNodes>
            0 -1 28 1724525114 -1645059618 -787716684 -126570501
            -1094047049 563485396 1242301371 928282403</internalNodes>
          <leafValues>
            -5.0723373889923096e-01 2.0511634647846222e-01</leafValues></_>
        <_>
          <internalNodes>
            0 -1 86 -662248928 -1275231039 -1145239547 -538524109
            510780977 1859113600 -848320625 2597943</internalNodes>
          <leafValues>
            -4.7193571925163269e-01 2.0782500505447388e-01</leafValues></_>
        <_>
          <internalNodes>
            0 -1 70 -679294329 -1435987550 1092885246 -632480707
            -1710604383 305308171 -1970723887 -205553514</internalNodes>
          <leafValues>
            -3.8190382719039917e-01 2.6950603723526001e-01</leafValues></_>
        <_>
          <internalNodes>
            0 -1 120 -128088562 -1122502361 -1997692643 352576575
            -938972248 -261076971 1333906285 604360829</internalNodes>
          <leafValues>
            -5.4812341928482056e-01 1.9537575542926788e-01</leafValues></_>
        <_>
          <internalNodes>
            0 -1 206 1174698240 14630873 1124429693 613939403
            -1532532807 -2138445732 -654557780 776561084</internalNodes>
          <leafValues>
            -5.7697546482086182e-01 1.8180938065052032e-01</leafValues></_>
        <_>
          <internalNodes>
            0 -1 174 -999494825 -1336899866 1661422511 -1324310528
            -865894014 -1782033270 171118393 -1327428045</internalNodes>
          <leafValues>
            -4.8702141642570496e-01 2.1073548495769501e-01</leafValues></_>
        <_>
          <internalNodes>
            0 -1 205 -737669984 -208852072 1455326359 -245169536
            890151834 1312235535 1364361883 -1653797981</internalNodes>
          <leafValues>
            -2.9125866293907166e-01 4.0400797128677368e-01</leafValues></_></weakClassifiers></_>
    <!-- stage 6 -->
    <_>
      <maxWeakCount>32</maxWeakCount>
      <stageThreshold>-1.2973285913467407e+00</stageThreshold>
      <weakClassifiers>
        <_>
          <internalNodes>
            0 -1 149 1061664607 2076692759 -653160105 -607808489
            -1471564834 -392951677 -388386082 -54396214</internalNodes>
          <leafValues>
            -5.6947511434555054e-01 2.8192186355590820e-01</leafValues></_>
        <_>
          <internalNodes>
            0 -1 32 743341986 -636159786 -41355459 945713588 662642075
            -1434226378 2097250303 1704416881</internalNodes>
          <leafValues>
            -6.3944858312606812e-01 2.5017073750495911e-01</leafValues></_>
        <_>
          <internalNodes>
            0 -1 13 233337070 -279793148 -1349474617 -92325975
            -1537746305 1950849945 1435110881 2002726717</internalNodes>
          <leafValues>
            -7.8635174036026001e-01 1.6765998303890228e-01</leafValues></_>
        <_>
          <internalNodes>
            0 -1 71 -661586724 1350566602 -1173856802 25183238 990543768
            2075283875 -385341384 -75665229</internalNodes>
          <leafValues>
            -4.2967686057090759e-01 3.5643735527992249e-01</leafValues></_>
        <_>
          <internalNodes>
            0 -1 127 2114023930 1344344215 22028573 -150630351
            -721286397 -1446623228 -1303477908 -540048721</internalNodes>
          <leafValues>
            -4.9845767021179199e-01 2.8264173865318298e-01</leafValues></_>
        <_>
          <internalNodes>
            0 -1 166 2061694578 984480380 -1961862052 190238746
            2030788624 1070218447 -389446515 1058859240</internalNodes>
          <leafValues>
            -6.0061061382293701e-01 2.1571709215641022e-01</leafValues></_>
        <_>
          <internalNodes>
            0 -1 42 -754976534 -246218066 -1325349736 1466110089
            -1560049485 -1073733564 1125222027 -215807529</internalNodes>
          <leafValues>
            -2.4434205889701843e-01 5.9457123279571533e-01</leafValues></_>
        <_>
          <internalNodes>
            0 -1 19 -1003936534 -757825318 420581840 1130662228
            1116475662 -888592824 277336347 -98365409</internalNodes>
          <leafValues>
            -3.6317893862724304e-01 3.7921088933944702e-01</leafValues></_>
        <_>
          <internalNodes>
            0 -1 201 -1665107931 -648607471 364605 1367933185 321829651
            -1177941240 454074805 2137915577</internalNodes>
          <leafValues>
            -3.8357803225517273e-01 3.4643384814262390e-01</leafValues></_>
        <_>
          <internalNodes>
            0 -1 79 -1954726240 778692629 -652354484 9961630 -654243403
            1301054081 -1689713424 1423306551</internalNodes>
          <leafValues>
            -6.9647794961929321e-01 1.8803700804710388e-01</leafValues></_>
        <_>
          <internalNodes>
            0 -1 204 -804240944 -141530858 -684654491 965021589
            -267083600 -2146875904 327202714 1464848570</internalNodes>
          <leafValues>
            -3.1976166367530823e-01 3.9718520641326904e-01</leafValues></_>
        <_>
          <internalNodes>
            0 -1 95 -888951811 -1289375691 436886220 -1361767000
            295776181 -190704322 -1997872551 -1393644165</internalNodes>
          <leafValues>
            -3.5720622539520264e-01 3.7493139505386353e-01</leafValues></_>
        <_>
          <internalNodes>
            0 -1 227 -738733393 -1148886843 -2012956459 292892827
            -1488879573 572932160 1111744939 -598097506</internalNodes>
          <leafValues>
            -2.3250257968902588e-01 5.7803255319595337e-01</leafValues></_>
        <_>
          <internalNodes>
            0 -1 209 -1256377695 -1526213214 344633861 -652637650
            816944843 480527900 441965133 -1913783337</internalNodes>
          <leafValues>
            -2.7979615330696106e-01 4.4544133543968201e-01</leafValues></_>
        <_>
          <internalNodes>
            0 -1 53 -1964106103 -620794290 2111628895 -558048138
            -44073362 -1167661578 -641802529 -122173865</internalNodes>
          <leafValues>
            -2.9653277993202209e-01 4.1386860609054565e-01</leafValues></_>
        <_>
          <internalNodes>
            0 -1 17 54030116 -764345024 -457251678 -1143756559
            1663240964 1434651420 594462170 1607937941</internalNodes>
          <leafValues>
            -6.9122409820556641e-01 2.1116448938846588e-01</leafValues></_>
        <_>
          <internalNodes>
            0 -1 0 1937921744 -792672880 -2132647407 1364432432
            -995849576 -1977216223 319466719 473146767</internalNodes>
          <leafValues>
            -3.3231613039970398e-01 3.8554966449737549e-01</leafValues></_>
        <_>
          <internalNodes>
            0 -1 139 -456349151 -379219625 -402095061 1303222495
            -1962757414 -1677721527 -2071944809 -939523769</internalNodes>
          <leafValues>
            -4.2926022410392761e-01 3.0717965960502625e-01</leafValues></_>
        <_>
          <internalNodes>
            0 -1 173 -860608995 -2033548950 1133527042 1799669405
            1605611246 -1393786205 128428129 -7917319</internalNodes>
          <leafValues>
            -3.4498751163482666e-01 3.5764321684837341e-01</leafValues></_>
        <_>
          <internalNodes>
            0 -1 176 1920894044 986703663 268438784 -1123007405
            715803803 715850753 1585447065 853244728</internalNodes>
          <leafValues>
            -5.8541464805603027e-01 2.1858374774456024e-01</leafValues></_>
        <_>
          <internalNodes>
            0 -1 50 -115224326 -775746406 -1320037294 1363216778
            -1720937270 1088331732 1195431151 -884252469</internalNodes>
          <leafValues>
            -2.2949425876140594e-01 6.1354106664657593e-01</leafValues></_>
        <_>
          <internalNodes>
            0 -1 171 -971145206 -880261396 704761915 540809437 -99368685
            1560367873 -916610141 1158791874</internalNodes>
          <leafValues>
            -4.4652527570724487e-01 3.0273714661598206e-01</leafValues></_>
        <_>
          <internalNodes>
            0 -1 7 236111095 -81492754 3510570 -58393330 528534607
            -536743089 289460363 -107990201</internalNodes>
          <leafValues>
            -3.7544149160385132e-01 3.4081315994262695e-01</leafValues></_>
        <_>
          <internalNodes>
            0 -1 162 -696377545 -13533641 -1610612803 -553207106
            -1662177923 -1610616833 754797917 -1679840581</internalNodes>
          <leafValues>
            -3.3800932765007019e-01 3.8253647089004517e-01</leafValues></_>
        <_>
          <internalNodes>
            0 -1 56 1218643488 -760528073 235687911 1292245907
            -1271090640 -86601087 1529173205 1118014593</internalNodes>
          <leafValues>
            -5.1928472518920898e-01 2.4849273264408112e-01</leafValues></_>
        <_>
          <internalNodes>
            0 -1 123 -1150969380 305135812 145268810 1252925973
            1627534065 973346819 -645810862 -229678329</internalNodes>
          <leafValues>
            -4.7996479272842407e-01 2.5437709689140320e-01</leafValues></_>
        <_>
          <internalNodes>
            0 -1 219 1400894486 1467425745 139885568 454004994
            -360521397 -2147430208 1442881176 -1337527072</internalNodes>
          <leafValues>
            -3.3172199130058289e-01 3.8646727800369263e-01</leafValues></_>
        <_>
          <internalNodes>
            0 -1 225 -242759998 1129597956 753417221 419642711
            -1341920696 1103577088 -1574717265 -677408629</internalNodes>
          <leafValues>
            -2.4364383518695831e-01 5.3377562761306763e-01</leafValues></_>
        <_>
          <internalNodes>
            0 -1 67 2098147748 775553166 -787284272 -1690121757
            1539855150 1054892042 -1399565672 -4464362</internalNodes>
          <leafValues>
            -4.1096743941307068e-01 3.5271829366683960e-01</leafValues></_>
        <_>
          <internalNodes>
            0 -1 202 -1163633953 -34087427 -1631650701 1024180053
            -1610852810 -1947402275 171503315 -71680551</internalNodes>
          <leafValues>
            -3.0421137809753418e-01 4.4580262899398804e-01</leafValues></_>
        <_>
          <internalNodes>
            0 -1 8 572170668 -1194708480 1422156252 1498201022
            -1407778717 -1621841731 419191178 209744963</internalNodes>
          <leafValues>
            -5.8207529783248901e-01 2.5231716036796570e-01</leafValues></_>
        <_>
          <internalNodes>
            0 -1 31 -790441706 1470595642 -2111700974 1496417800
            1934711370 8193056 1191621506 -619886371</internalNodes>
          <leafValues>
            -3.3748996257781982e-01 4.0079975128173828e-01</leafValues></_></weakClassifiers></_>
    <!-- stage 7 -->
    <_>
      <maxWeakCount>30</maxWeakCount>
      <stageThreshold>-9.9224525690078735e-01</stageThreshold>
      <weakClassifiers>
        <_>
          <internalNodes>
            0 -1 129 1480716799 -779748901 1078337778 -553144013
            -1072783357 -242570880 -1354592565 1053469212</internalNodes>
          <leafValues>
            -4.8354461789131165e-01 3.9996492862701416e-01</leafValues></_>
        <_>
          <internalNodes>
            0 -1 38 2096578374 930596796 -519007806 -384385016
            1666399801 1073351264 952189236 2011788838</internalNodes>
          <leafValues>
            -6.3922911882400513e-01 2.3504024744033813e-01</leafValues></_>
        <_>
          <internalNodes>
            0 -1 222 -796376952 26116098 83886592 -251592192 622992
            553680908 805543594 319494298</internalNodes>
          <leafValues>
            -3.9854696393013000e-01 3.8421037793159485e-01</leafValues></_>
        <_>
          <internalNodes>
            0 -1 121 -1878467141 -698941302 811619291 -662568948
            -1457474422 -1476389885 270696955 84543261</internalNodes>
          <leafValues>
            -3.9703339338302612e-01 3.9768218994140625e-01</leafValues></_>
        <_>
          <internalNodes>
            0 -1 112 1975613022 76602326 -529122331 1923435692
            1647522760 -1443105414 -1327977341 1026440445</internalNodes>
          <leafValues>
            -5.9147036075592041e-01 2.3264186084270477e-01</leafValues></_>
        <_>
          <internalNodes>
            0 -1 214 -673499856 18347615 -2063564654 526830911
            -1862217336 -2062918654 856748689 -2143206483</internalNodes>
          <leafValues>
            -4.4298344850540161e-01 3.1584295630455017e-01</leafValues></_>
        <_>
          <internalNodes>
            0 -1 103 -1156122248 569469076 319898128 802967337 42197193
            885724169 1593837362 1602013851</internalNodes>
          <leafValues>
            -4.8526564240455627e-01 2.8423449397087097e-01</leafValues></_>
        <_>
          <internalNodes>
            0 -1 80 223158890 -640006078 269873414 -1999484898
            1610612761 6033329 -2101244932 -19740110</internalNodes>
          <leafValues>
            -4.4163119792938232e-01 3.2046103477478027e-01</leafValues></_>
        <_>
          <internalNodes>
            0 -1 1 -1811627516 -787349175 -1877959017 828047765
            -1744715617 -2004598136 -936866145 152278144</internalNodes>
          <leafValues>
            -3.7369427084922791e-01 3.6509236693382263e-01</leafValues></_>
        <_>
          <internalNodes>
            0 -1 104 1392521715 -137330599 -1810666730 21315863
            329818787 -391486306 -1985744245 -11664881</internalNodes>
          <leafValues>
            -2.1876619756221771e-01 6.5842944383621216e-01</leafValues></_>
        <_>
          <internalNodes>
            0 -1 208 1509912889 929546457 60390789 1245902675
            -2084469388 -1358967736 885584616 -1734806838</internalNodes>
          <leafValues>
            -3.1435874104499817e-01 4.4630175828933716e-01</leafValues></_>
        <_>
          <internalNodes>
            0 -1 63 746254283 -921644607 134543973 -112006336 1549873579
            -1467283384 -1340965254 -309902526</internalNodes>
          <leafValues>
            -4.0306937694549561e-01 3.3745762705802917e-01</leafValues></_>
        <_>
          <internalNodes>
            0 -1 10 -913690612 -99577443 671143398 -1986215686 437391437
            1608136863 -469479402 1410679639</internalNodes>
          <leafValues>
            -6.5848678350448608e-01 2.2557350993156433e-01</leafValues></_>
        <_>
          <internalNodes>
            0 -1 193 -2091084520 -605732012 1409372757 -717123312
            -1602019323 -2147024894 680360677 -1360049671</internalNodes>
          <leafValues>
            -3.8083931803703308e-01 3.7678501009941101e-01</leafValues></_>
        <_>
          <internalNodes>
            0 -1 140 -1319283986 1345425747 -879697332 587252109
            -712609233 -1377394560 -1065212857 1187927548</internalNodes>
          <leafValues>
            -4.0670475363731384e-01 3.3052659034729004e-01</leafValues></_>
        <_>
          <internalNodes>
            0 -1 217 471831138 2133100738 -2096648096 1044759760
            566599750 1521229824 -1980451172 -1731079028</internalNodes>
          <leafValues>
            -3.8068491220474243e-01 3.6916732788085938e-01</leafValues></_>
        <_>
          <internalNodes>
            0 -1 93 -703557588 -557574633 1039783389 -651747247
            269396115 -1475703999 -1795127301 -1954170608</internalNodes>
          <leafValues>
            -2.8849589824676514e-01 4.9528989195823669e-01</leafValues></_>
        <_>
          <internalNodes>
            0 -1 197 471744832 21319757 110414641 675479883 -243191200
            -590839656 -536854060 638998746</internalNodes>
          <leafValues>
            -6.0262769460678101e-01 2.4460025131702423e-01</leafValues></_>
        <_>
          <internalNodes>
            0 -1 229 -217853296 -581973236 337716233 273921135
            -1065180029 -1036188506 6879651 1369680297</internalNodes>
          <leafValues>
            -3.4512662887573242e-01 4.1067117452621460e-01</leafValues></_>
        <_>
          <internalNodes>
            0 -1 26 1117948655 1129466184 -1995075383 -949171436
            -1185811665 1522557378 -1593763765 -876584366</internalNodes>
          <leafValues>
            -3.6687999963760376e-01 3.6632335186004639e-01</leafValues></_>
        <_>
          <internalNodes>
            0 -1 102 -1100655430 309559296 -1560128502 -346120158
            335678710 2056485642 193398784 1140324927</internalNodes>
          <leafValues>
            -5.0704443454742432e-01 2.8610911965370178e-01</leafValues></_>
        <_>
          <internalNodes>
            0 -1 190 -270028679 1810053841 1847489381 -1492292737
            -809592524 -1096876963 -1881145960 -1931421755</internalNodes>
          <leafValues>
            -3.3894494175910950e-01 4.1145443916320801e-01</leafValues></_>
        <_>
          <internalNodes>
            0 -1 136 1415782034 -1039531254 -1597832016 1342316755
            -1231945233 -2147336184 1343291520 94771436</internalNodes>
          <leafValues>
            -4.6882233023643494e-01 2.8832337260246277e-01</leafValues></_>
        <_>
          <internalNodes>
            0 -1 188 240685827 -2083143624 -1005301518 433922201
            1023657623 -234772582 403422707 -173813279</internalNodes>
          <leafValues>
            -2.9177427291870117e-01 4.6179455518722534e-01</leafValues></_>
        <_>
          <internalNodes>
            0 -1 64 56166906 355928185 -347480169 1427571248 -433808486
            725981257 251691443 1353280655</internalNodes>
          <leafValues>
            -4.4323849678039551e-01 3.0044031143188477e-01</leafValues></_>
        <_>
          <internalNodes>
            0 -1 167 1389940987 1452245009 344914239 -1651736316
            1932669397 967002751 1059255810 -339755293</internalNodes>
          <leafValues>
            -2.9251500964164734e-01 4.6361199021339417e-01</leafValues></_>
        <_>
          <internalNodes>
            0 -1 94 4358160 1355055386 152389549 -1321130983 -653724504
            -793722623 956301458 -1342172130</internalNodes>
          <leafValues>
            -3.5071039199829102e-01 3.7265625596046448e-01</leafValues></_>
        <_>
          <internalNodes>
            0 -1 115 1405991519 288723141 -777895920 -645906424
            285364405 -1435891168 -1610086365 1542038522</internalNodes>
          <leafValues>
            -4.7033026814460754e-01 3.0004072189331055e-01</leafValues></_>
        <_>
          <internalNodes>
            0 -1 223 345197188 1085728436 268576 416571754 -805058326
            -967835096 1464273648 -1568415406</internalNodes>
          <leafValues>
            -3.9517584443092346e-01 3.5010594129562378e-01</leafValues></_>
        <_>
          <internalNodes>
            0 -1 39 -485605122 840122456 537055442 1346924550 68362895
            1829502978 1398483379 -820422719</internalNodes>
          <leafValues>
            -3.5397055745124817e-01 3.6757245659828186e-01</leafValues></_></weakClassifiers></_>
    <!-- stage 8 -->
    <_>
      <maxWeakCount>28</maxWeakCount>
      <stageThreshold>-1.1248480081558228e+00</stageThreshold>
      <weakClassifiers>
        <_>
          <internalNodes>
            0 -1 25 1326464490 -160222436 1886032710 -384616447
            -791318277 1998927441 351570865 1206260306</internalNodes>
          <leafValues>
            -7.4672955274581909e-01 3.5716447234153748e-01</leafValues></_>
        <_>
          <internalNodes>
            0 -1 60 1972182095 -951198089 -854830654 -121954134
            1116440601 1938688403 -286958578 -366768732</internalNodes>
          <leafValues>
            -4.2350357770919800e-01 4.2177399992942810e-01</leafValues></_>
        <_>
          <internalNodes>
            0 -1 21 1398805072 275336697 142704663 621066597 -2043476809
            -631340910 -1978350513 2014335438</internalNodes>
          <leafValues>
            -6.3196915388107300e-01 2.9481467604637146e-01</leafValues></_>
        <_>
          <internalNodes>
            0 -1 48 -16681985 411048080 1301492250 572023814 1376335842
            2025423000 -434108664 -78656253</internalNodes>
          <leafValues>
            -4.5612159371376038e-01 3.4256520867347717e-01</leafValues></_>
        <_>
          <internalNodes>
            0 -1 144 -1001401106 1350925597 355254532 1344011791
            -2130183158 84436805 -2053717617 860579451</internalNodes>
          <leafValues>
            -3.6104467511177063e-01 4.2673784494400024e-01</leafValues></_>
        <_>
          <internalNodes>
            0 -1 20 1885767920 2032681868 -1072505767 -1688609466
            578889082 -475140950 1233272251 543510580</internalNodes>
          <leafValues>
            -6.1915677785873413e-01 2.3107218742370605e-01</leafValues></_>
        <_>
          <internalNodes>
            0 -1 40 2071984685 945611882 -1742866732 -273914676
            861662111 -336057714 -1006035184 -12464691</internalNodes>
          <leafValues>
            -2.6288330554962158e-01 5.8776623010635376e-01</leafValues></_>
        <_>
          <internalNodes>
            0 -1 131 1113541311 -1815703393 268570841 -1013459919
            1082674554 -257916798 -1010251254 1786960303</internalNodes>
          <leafValues>
            -5.1215994358062744e-01 2.9342865943908691e-01</leafValues></_>
        <_>
          <internalNodes>
            0 -1 2 -988540812 -1042577389 -552005349 1418400313
            -1771850997 -905969143 387888043 -654078935</internalNodes>
          <leafValues>
            -3.0571597814559937e-01 4.7508695721626282e-01</leafValues></_>
        <_>
          <internalNodes>
            0 -1 226 -767298942 1081409733 1112621138 1376747545
            -249374592 545456384 269670021 51630541</internalNodes>
          <leafValues>
            -3.6933737993240356e-01 3.9813941717147827e-01</leafValues></_>
        <_>
          <internalNodes>
            0 -1 140 -106147428 -1341918857 -1048034897 1828893119
            -841921050 248128388 283118417 1211764629</internalNodes>
          <leafValues>
            -5.3386020660400391e-01 2.6157358288764954e-01</leafValues></_>
        <_>
          <internalNodes>
            0 -1 151 1939472080 359436359 46158304 -1599030780 208343244
            976244902 -430949139 1371232860</internalNodes>
          <leafValues>
            -5.6406295299530029e-01 2.5535529851913452e-01</leafValues></_>
        <_>
          <internalNodes>
            0 -1 189 -1870097664 365979737 256180997 -1506565568
            1791388020 855574656 -357732103 143877845</internalNodes>
          <leafValues>
            -6.6403305530548096e-01 2.3181474208831787e-01</leafValues></_>
        <_>
          <internalNodes>
            0 -1 46 763613584 29906958 268501232 201622630 1644870032
            1024000582 554184882 -1691768822</internalNodes>
          <leafValues>
            -4.2926543951034546e-01 3.3072781562805176e-01</leafValues></_>
        <_>
          <internalNodes>
            0 -1 44 -201732745 1618373208 -1711410208 -784821276
            -638895846 671743161 1886654642 -415060125</internalNodes>
          <leafValues>
            -3.2545456290245056e-01 4.3378141522407532e-01</leafValues></_>
        <_>
          <internalNodes>
            0 -1 216 1594345728 548848553 -2111631311 642106478
            -1949232968 -2134572542 -937756488 207784363</internalNodes>
          <leafValues>
            -5.1544493436813354e-01 2.6728340983390808e-01</leafValues></_>
        <_>
          <internalNodes>
            0 -1 3 -441318911 -1332657953 251958471 -1408400027
            1388340002 -1417575935 -1199030189 -786384889</internalNodes>
          <leafValues>
            -4.3040010333061218e-01 3.2961773872375488e-01</leafValues></_>
        <_>
          <internalNodes>
            0 -1 152 -1085631756 -1760489327 460781972 -574059376
            411605177 1016598697 966098982 -1425517937</internalNodes>
          <leafValues>
            -3.2287427783012390e-01 4.3121835589408875e-01</leafValues></_>
        <_>
          <internalNodes>
            0 -1 27 1615860674 -800894668 4653638 -1520735897 503140853
            1073807940 -1816001846 -547343294</internalNodes>
          <leafValues>
            -4.4055008888244629e-01 3.1780087947845459e-01</leafValues></_>
        <_>
          <internalNodes>
            0 -1 34 -1328577566 1342601482 8421792 1494695936
            -1337781030 -2147348352 864551698 1363812036</internalNodes>
          <leafValues>
            -4.0033799409866333e-01 3.5141330957412720e-01</leafValues></_>
        <_>
          <internalNodes>
            0 -1 5 -1990476822 1450868747 1661044803 1491437637
            1511144074 1342374410 1202525850 -983669031</internalNodes>
          <leafValues>
            -3.1758764386177063e-01 4.3713858723640442e-01</leafValues></_>
        <_>
          <internalNodes>
            0 -1 156 -1327307877 18882638 537612379 -308150112
            -2012003900 -1417609208 -1190483981 -66385517</internalNodes>
          <leafValues>
            -4.7132197022438049e-01 3.1695988774299622e-01</leafValues></_>
        <_>
          <internalNodes>
            0 -1 198 -979803455 -61626206 300439497 -637730692
            -1555659733 -1861680948 160209291 1036739338</internalNodes>
          <leafValues>
            -3.0806300044059753e-01 4.7926759719848633e-01</leafValues></_>
        <_>
          <internalNodes>
            0 -1 14 -874903096 1191866702 1091629378 259703678
            1790357914 1882305696 -1597803698 -581676731</internalNodes>
          <leafValues>
            -4.0058249235153198e-01 3.4734559059143066e-01</leafValues></_>
        <_>
          <internalNodes>
            0 -1 124 -1475576242 -1872607855 -2113710748 -2086755997
            159162884 32182774 713754453 -66508663</internalNodes>
          <leafValues>
            -4.6105968952178955e-01 3.0522754788398743e-01</leafValues></_>
        <_>
          <internalNodes>
            0 -1 168 941097040 -754941886 1074290749 428556301
            -1996304245 -1440612319 -1610577761 1494091806</internalNodes>
          <leafValues>
            -3.4724465012550354e-01 3.9209711551666260e-01</leafValues></_>
        <_>
          <internalNodes>
            0 -1 33 671275940 1412518674 68741481 -903951484 689461678
            -1475714688 -2076045397 902521878</internalNodes>
          <leafValues>
            -5.6939274072647095e-01 2.4706758558750153e-01</leafValues></_>
        <_>
          <internalNodes>
            0 -1 137 -704774093 -501207032 578813968 1543897374
            411726315 -1031536630 1653899442 233443532</internalNodes>
          <leafValues>
            -4.1413402557373047e-01 3.1822383403778076e-01</leafValues></_></weakClassifiers></_>
    <!-- stage 9 -->
    <_>
      <maxWeakCount>27</maxWeakCount>
      <stageThreshold>-9.7819757461547852e-01</stageThreshold>
      <weakClassifiers>
        <_>
          <internalNodes>
            0 -1 75 105357066 -173559775 2177858 -497981408 608142869
            1388855045 659902639 1117423914</internalNodes>
          <leafValues>
            -5.8912122249603271e-01 4.6218064427375793e-01</leafValues></_>
        <_>
          <internalNodes>
            0 -1 165 -238055145 -1856536553 -2143283747 -1790017277
            -1341548153 -1870593918 -2013164588 1686308014</internalNodes>
          <leafValues>
            -4.5510455965995789e-01 3.7202098965644836e-01</leafValues></_>
        <_>
          <internalNodes>
            0 -1 195 -1967554847 -538112343 1804823889 -645705867
            -868557603 -1716814518 1074874515 -617898743</internalNodes>
          <leafValues>
            -2.6762488484382629e-01 5.6019675731658936e-01</leafValues></_>
        <_>
          <internalNodes>
            0 -1 210 -1068134123 -1252155196 805410372 -1820355418
            299925642 1158075022 378524681 144465384</internalNodes>
          <leafValues>
            -4.9028190970420837e-01 3.1503832340240479e-01</leafValues></_>
        <_>
          <internalNodes>
            0 -1 185 -233055024 -783089577 -1073295036 -1744711673
            1107865600 1124728832 805306560 1364148896</internalNodes>
          <leafValues>
            -4.0980741381645203e-01 3.8443100452423096e-01</leafValues></_>
        <_>
          <internalNodes>
            0 -1 117 -721332774 33820673 286642420 -644280309
            -1476321133 134742185 -2079746926 -1869051773</internalNodes>
          <leafValues>
            -4.5530804991722107e-01 3.3418807387351990e-01</leafValues></_>
        <_>
          <internalNodes>
            0 -1 37 -1409979489 1271158344 5040745 -1053466294
            -1803322741 -888829943 419702525 -238377402</internalNodes>
          <leafValues>
            -2.8058642148971558e-01 5.4467654228210449e-01</leafValues></_>
        <_>
          <internalNodes>
            0 -1 49 1886451146 1421873218 352354338 1459683328
            -1996410483 314573086 16810123 126943374</internalNodes>
          <leafValues>
            -4.1078338027000427e-01 3.8229811191558838e-01</leafValues></_>
        <_>
          <internalNodes>
            0 -1 84 1360549268 -1471149768 -1862040361 1237524555
            -2004811094 -1735489280 973297818 -1894114405</internalNodes>
          <leafValues>
            -2.6873889565467834e-01 5.5435466766357422e-01</leafValues></_>
        <_>
          <internalNodes>
            0 -1 6 -1559616872 1142882489 4518 756089113 -1354292656
            100761600 637604633 -1627061437</internalNodes>
          <leafValues>
            -4.2398235201835632e-01 3.5729989409446716e-01</leafValues></_>
        <_>
          <internalNodes>
            0 -1 62 -1016639478 -2011097678 352326750 395119642
            -2009562472 589989378 51282472 1102430739</internalNodes>
          <leafValues>
            -6.3692641258239746e-01 2.6531857252120972e-01</leafValues></_>
        <_>
          <internalNodes>
            0 -1 220 -1997603702 2076786906 555242528 1823702724
            -661349183 773004361 -417570310 -329596773</internalNodes>
          <leafValues>
            -3.1469455361366272e-01 4.9393394589424133e-01</leafValues></_>
        <_>
          <internalNodes>
            0 -1 59 894246670 373358739 537228035 -1640702795 635111433
            1953483289 -591345554 37718505</internalNodes>
          <leafValues>
            -5.9278583526611328e-01 2.4532127380371094e-01</leafValues></_>
        <_>
          <internalNodes>
            0 -1 97 -1052420565 -935427977 1359155202 662901009
            -1331677911 -2138830848 -385648458 -1618810630</internalNodes>
          <leafValues>
            -4.3835020065307617e-01 3.4334707260131836e-01</leafValues></_>
        <_>
          <internalNodes>
            0 -1 228 -204630824 138756102 822116418 1359052952
            -1879010936 570556432 268677289 1493405896</internalNodes>
          <leafValues>
            -3.4264966845512390e-01 4.5203575491905212e-01</leafValues></_>
        <_>
          <internalNodes>
            0 -1 23 -2075653985 -1786986149 270569704 -1017704233
            -517975838 -397368672 285391481 1433155586</internalNodes>
          <leafValues>
            -4.6450728178024292e-01 3.1739950180053711e-01</leafValues></_>
        <_>
          <internalNodes>
            0 -1 186 -624627142 441385576 205643850 1850352806
            1647384592 570957890 1778385280 -691508148</internalNodes>
          <leafValues>
            -4.7087773680686951e-01 3.1238886713981628e-01</leafValues></_>
        <_>
          <internalNodes>
            0 -1 101 -1330581091 -736055478 -615731523 168464226
            183938083 529004542 92651999 -550824500</internalNodes>
          <leafValues>
            -3.0472040176391602e-01 5.2422678470611572e-01</leafValues></_>
        <_>
          <internalNodes>
            0 -1 47 1457830201 -2108568375 1950423052 782121173
            1812476723 -40873628 985926231 -73709473</internalNodes>
          <leafValues>
            -3.0226299166679382e-01 4.9036797881126404e-01</leafValues></_>
        <_>
          <internalNodes>
            0 -1 180 1695339984 -2007400320 -1226579367 891870421
            -2130642801 -536734684 289715467 -1149091681</internalNodes>
          <leafValues>
            -2.7565076947212219e-01 5.4783332347869873e-01</leafValues></_>
        <_>
          <internalNodes>
            0 -1 218 281985537 929760266 -619880349 570577116
            -1866272182 281706880 1443090797 -1463620643</internalNodes>
          <leafValues>
            -3.8745051622390747e-01 3.7695208191871643e-01</leafValues></_>
        <_>
          <internalNodes>
            0 -1 221 1401123294 1901396149 -1537195328 600638026
            2022746312 -1064910848 83948312 -1162657640</internalNodes>
          <leafValues>
            -3.3548691868782043e-01 4.5363643765449524e-01</leafValues></_>
        <_>
          <internalNodes>
            0 -1 36 -745539408 1917894870 1667856422 -767489525
            822785582 34754649 -2027488338 -206653781</internalNodes>
          <leafValues>
            -2.3055887222290039e-01 6.4727008342742920e-01</leafValues></_>
        <_>
          <internalNodes>
            0 -1 4 -1260271804 -841545648 -1996357433 -1962288155
            -1190478959 927482453 -1723727069 -211633389</internalNodes>
          <leafValues>
            -3.8907822966575623e-01 3.9064010977745056e-01</leafValues></_>
        <_>
          <internalNodes>
            0 -1 200 -1679715806 -615497530 828675345 1494475524
            -1870364669 -2125954770 190433018 395905424</internalNodes>
          <leafValues>
            -3.5355243086814880e-01 4.2605534195899963e-01</leafValues></_>
        <_>
          <internalNodes>
            0 -1 177 -1562434637 -523239329 1879102845 -591392749
            143296951 8519824 -1844272482 -517812222</internalNodes>
          <leafValues>
            -4.5976933836936951e-01 3.1451445817947388e-01</leafValues></_>
        <_>
          <internalNodes>
            0 -1 91 1348008408 -916944640 151001492 88080543 723521587
            -2082275016 461537832 1225792097</internalNodes>
          <leafValues>
            -4.1944980621337891e-01 3.8153898715972900e-01</leafValues></_></weakClassifiers></_>
    <!-- stage 10 -->
    <_>
      <maxWeakCount>23</maxWeakCount>
      <stageThreshold>-6.6833931207656860e-01</stageThreshold>
      <weakClassifiers>
        <_>
          <internalNodes>
            0 -1 157 -1657500364 791866935 -8707 -1524581064 368156020
            -1111520071 -1338045380 686491802</internalNodes>
          <leafValues>
            -4.4670233130455017e-01 6.1637824773788452e-01</leafValues></_>
        <_>
          <internalNodes>
            0 -1 143 -169887634 -1426738014 -272851415 -1124769243
            417707621 984671406 -789577913 1006597167</internalNodes>
          <leafValues>
            -2.6694738864898682e-01 5.8036565780639648e-01</leafValues></_>
        <_>
          <internalNodes>
            0 -1 170 -1525661550 -650837967 16892187 386927775
            -1711232887 -376504318 155374030 -1961983869</internalNodes>
          <leafValues>
            -2.4631981551647186e-01 6.7507749795913696e-01</leafValues></_>
        <_>
          <internalNodes>
            0 -1 4 13656416 -379879233 159454621 230787776 1660994170
            -671061592 1242073163 1085267458</internalNodes>
          <leafValues>
            -4.8776575922966003e-01 3.3095672726631165e-01</leafValues></_>
        <_>
          <internalNodes>
            0 -1 182 -2071834488 17678336 -2147418047 -1777893376
            604049418 -981302654 -804780023 176517697</internalNodes>
          <leafValues>
            -6.4852923154830933e-01 3.1578850746154785e-01</leafValues></_>
        <_>
          <internalNodes>
            0 -1 72 -116376586 -1320144684 -2080370688 74055693
            1695633644 1669236833 276838976 514048152</internalNodes>
          <leafValues>
            -5.3650629520416260e-01 2.8868269920349121e-01</leafValues></_>
        <_>
          <internalNodes>
            0 -1 35 1344532415 -1518284678 -777240206 -1555129510
            1905226626 -1440704382 -373038085 -179623803</internalNodes>
          <leafValues>
            -3.2328939437866211e-01 5.5483537912368774e-01</leafValues></_>
        <_>
          <internalNodes>
            0 -1 45 -2099451650 -396164604 -2080247459 84443716
            579508878 -100139006 134394155 -141977207</internalNodes>
          <leafValues>
            -2.7516049146652222e-01 5.9321618080139160e-01</leafValues></_>
        <_>
          <internalNodes>
            0 -1 199 -1877675056 1165344819 201104 -711786479 -754966368
            471335056 -2130128888 1268482381</internalNodes>
          <leafValues>
            -3.8090837001800537e-01 4.3143576383590698e-01</leafValues></_>
        <_>
          <internalNodes>
            0 -1 141 486334099 -2072434689 -688335 -2081066059
            -1444131234 -327233537 532655910 -75548887</internalNodes>
          <leafValues>
            -3.8540342450141907e-01 4.3001151084899902e-01</leafValues></_>
        <_>
          <internalNodes>
            0 -1 217 1796157952 -465316788 -1072658432 -1706597279
            -1979161888 -1463615488 151102912 1018468792</internalNodes>
          <leafValues>
            -4.9800428748130798e-01 3.2938498258590698e-01</leafValues></_>
        <_>
          <internalNodes>
            0 -1 51 -730760997 -801856778 17981887 499249500 -1593670482
            -551284198 -1820266357 -352253301</internalNodes>
          <leafValues>
            -2.1692296862602234e-01 8.0299466848373413e-01</leafValues></_>
        <_>
          <internalNodes>
            0 -1 92 -788336490 -125435712 67458267 73011523 353436366
            -85966168 411095042 -1702883157</internalNodes>
          <leafValues>
            -2.7373474836349487e-01 5.6953394412994385e-01</leafValues></_>
        <_>
          <internalNodes>
            0 -1 114 1116291423 376833 1090587666 1145083031 -804169599
            -1685192576 -2147425791 1802007691</internalNodes>
          <leafValues>
            -4.9119132757186890e-01 3.4027662873268127e-01</leafValues></_>
        <_>
          <internalNodes>
            0 -1 230 -796604207 1392774240 627852296 2038972954
            369815694 134250310 -2029614035 -477681922</internalNodes>
          <leafValues>
            -2.5766921043395996e-01 6.4883768558502197e-01</leafValues></_>
        <_>
          <internalNodes>
            0 -1 105 -1805565781 -597154791 84624799 -1721694729
            396546379 -2076431344 840224442 -1228700106</internalNodes>
          <leafValues>
            -3.4040606021881104e-01 4.7587972879409790e-01</leafValues></_>
        <_>
          <internalNodes>
            0 -1 34 -513912294 -1818001116 706936841 -1056307172
            -1006042556 1111528070 -1072357352 -236201011</internalNodes>
          <leafValues>
            -2.9883724451065063e-01 5.1951545476913452e-01</leafValues></_>
        <_>
          <internalNodes>
            0 -1 181 -78527805 2117486754 891737515 744949891 -922189494
            -6052668 -1031517383 -818947776</internalNodes>
          <leafValues>
            -2.6682171225547791e-01 6.2842285633087158e-01</leafValues></_>
        <_>
          <internalNodes>
            0 -1 111 247794223 2117513195 1784630924 1533492712
            1332739930 1270874108 1300231195 -1253310895</internalNodes>
          <leafValues>
            -3.3227318525314331e-01 4.8772940039634705e-01</leafValues></_>
        <_>
          <internalNodes>
            0 -1 211 482841669 2044327809 87984290 809577438 69657124
            -2037623569 -683152119 -1265867029</internalNodes>
          <leafValues>
            -3.6374908685684204e-01 4.6043518185615540e-01</leafValues></_>
        <_>
          <internalNodes>
            0 -1 187 -247373123 1226390601 1074793745 1459426012
            203000584 1336409366 922885024 -413495544</internalNodes>
          <leafValues>
            -3.3546641469001770e-01 5.2480846643447876e-01</leafValues></_>
        <_>
          <internalNodes>
            0 -1 22 -1569462617 -720501582 1141964802 -644888503
            -2125155454 207618080 1091629128 -373421653</internalNodes>
          <leafValues>
            -2.6201266050338745e-01 6.1409747600555420e-01</leafValues></_>
        <_>
          <internalNodes>
            0 -1 132 -510950501 815006097 285298821 -783548416
            1493174993 573243402 -1954495806 -486428530</internalNodes>
          <leafValues>
            -4.2380273342132568e-01 3.8355851173400879e-01</leafValues></_></weakClassifiers></_></stages>
  <features>
    <_>
      <rect>
        0 0 2 1</rect></_>
    <_>
      <rect>
        0 0 3 1</rect></_>
    <_>
      <rect>
        0 0 3 2</rect></_>
    <_>
      <rect>
        0 0 5 2</rect></_>
    <_>
      <rect>
        0 0 6 2</rect></_>
    <_>
      <rect>
        0 1 1 4</rect></_>
    <_>
      <rect>
        0 1 2 2</rect></_>
    <_>
      <rect>
        0 1 2 4</rect></_>
    <_>
      <rect>
        0 1 2 6</rect></_>
    <_>
      <rect>
        0 1 3 6</rect></_>
    <_>
      <rect>
        0 1 4 3</rect></_>
    <_>
      <rect>
        0 1 5 3</rect></_>
    <_>
      <rect>
        0 1 6 5</rect></_>
    <_>
      <rect>
        0 1 6 6</rect></_>
    <_>
      <rect>
        0 2 2 3</rect></_>
    <_>
      <rect>
        0 2 2 4</rect></_>
    <_>
      <rect>
        0 2 3 3</rect></_>
    <_>
      <rect>
        0 2 5 6</rect></_>
    <_>
      <rect>
        0 2 6 6</rect></_>
    <_>
      <rect>
        0 3 2 2</rect></_>
    <_>
      <rect>
        0 3 3 4</rect></_>
    <_>
      <rect>
        0 3 5 4</rect></_>
    <_>
      <rect>
        0 4 1 4</rect></_>
    <_>
      <rect>
        0 4 2 4</rect></_>
    <_>
      <rect>
        0 4 5 5</rect></_>
    <_>
      <rect>
        0 4 6 5</rect></_>
    <_>
      <rect>
        0 5 2 4</rect></_>
    <_>
      <rect>
        0 5 2 5</rect></_>
    <_>
      <rect>
        0 5 3 3</rect></_>
    <_>
      <rect>
        0 5 4 4</rect></_>
    <_>
      <rect>
        0 6 2 4</rect></_>
    <_>
      <rect>
        0 7 1 4</rect></_>
    <_>
      <rect>
        0 7 3 3</rect></_>
    <_>
      <rect>
        0 7 3 4</rect></_>
    <_>
      <rect>
        0 8 1 4</rect></_>
    <_>
      <rect>
        0 8 2 3</rect></_>
    <_>
      <rect>
        0 10 1 2</rect></_>
    <_>
      <rect>
        0 10 2 3</rect></_>
    <_>
      <rect>
        0 10 6 3</rect></_>
    <_>
      <rect>
        0 11 2 2</rect></_>
    <_>
      <rect>
        0 11 3 3</rect></_>
    <_>
      <rect>
        0 11 6 3</rect></_>
    <_>
      <rect>
        0 12 1 2</rect></_>
    <_>
      <rect>
        0 12 2 2</rect></_>
    <_>
      <rect>
        0 12 3 2</rect></_>
    <_>
      <rect>
        0 13 2 2</rect></_>
    <_>
      <rect>
        0 14 3 2</rect></_>
    <_>
      <rect>
        0 14 4 2</rect></_>
    <_>
      <rect>
        0 14 6 2</rect></_>
    <_>
      <rect>
        0 15 1 1</rect></_>
    <_>
      <rect>
        0 17 1 1</rect></_>
    <_>
      <rect>
        1 0 2 1</rect></_>
    <_>
      <rect>
        1 0 2 5</rect></_>
    <_>
      <rect>
        1 0 3 3</rect></_>
    <_>
      <rect>
        1 0 4 3</rect></_>
    <_>
      <rect>
        1 0 5 3</rect></_>
    <_>
      <rect>
        1 0 6 2</rect></_>
    <_>
      <rect>
        1 1 6 2</rect></_>
    <_>
      <rect>
        1 3 2 4</rect></_>
    <_>
      <rect>
        1 3 6 4</rect></_>
    <_>
      <rect>
        1 4 6 3</rect></_>
    <_>
      <rect>
        1 5 6 2</rect></_>
    <_>
      <rect>
        1 6 4 2</rect></_>
    <_>
      <rect>
        1 7 2 4</rect></_>
    <_>
      <rect>
        1 7 6 2</rect></_>
    <_>
      <rect>
        1 9 6 2</rect></_>
    <_>
      <rect>
        1 10 4 3</rect></_>
    <_>
      <rect>
        1 11 3 3</rect></_>
    <_>
      <rect>
        1 11 4 3</rect></_>
    <_>
      <rect>
        1 11 6 3</rect></_>
    <_>
      <rect>
        1 12 4 1</rect></_>
    <_>
      <rect>
        1 14 4 2</rect></_>
    <_>
      <rect>
        1 14 6 2</rect></_>
    <_>
      <rect>
        2 0 4 2</rect></_>
    <_>
      <rect>
        2 0 5 6</rect></_>
    <_>
      <rect>
        2 0 6 5</rect></_>
    <_>
      <rect>
        2 0 6 6</rect></_>
    <_>
      <rect>
        2 1 6 5</rect></_>
    <_>
      <rect>
        2 2 6 3</rect></_>
    <_>
      <rect>
        2 3 6 2</rect></_>
    <_>
      <rect>
        2 5 5 2</rect></_>
    <_>
      <rect>
        2 5 6 2</rect></_>
    <_>
      <rect>
        2 5 6 5</rect></_>
    <_>
      <rect>
        2 9 5 2</rect></_>
    <_>
      <rect>
        2 17 3 1</rect></_>
    <_>
      <rect>
        3 0 2 6</rect></_>
    <_>
      <rect>
        3 0 5 2</rect></_>
    <_>
      <rect>
        3 2 5 6</rect></_>
    <_>
      <rect>
        3 4 4 4</rect></_>
    <_>
      <rect>
        3 5 4 4</rect></_>
    <_>
      <rect>
        3 13 5 2</rect></_>
    <_>
      <rect>
        3 17 3 1</rect></_>
    <_>
      <rect>
        3 17 4 1</rect></_>
    <_>
      <rect>
        4 0 2 1</rect></_>
    <_>
      <rect>
        4 0 4 1</rect></_>
    <_>
      <rect>
        4 3 3 5</rect></_>
    <_>
      <rect>
        4 4 5 5</rect></_>
    <_>
      <rect>
        4 5 3 3</rect></_>
    <_>
      <rect>
        4 5 4 3</rect></_>
    <_>
      <rect>
        4 6 4 3</rect></_>
    <_>
      <rect>
        4 8 5 4</rect></_>
    <_>
      <rect>
        4 11 1 1</rect></_>
    <_>
      <rect>
        4 13 4 2</rect></_>
    <_>
      <rect>
        4 14 5 2</rect></_>
    <_>
      <rect>
        4 17 3 1</rect></_>
    <_>
      <rect>
        5 0 3 2</rect></_>
    <_>
      <rect>
        5 0 4 5</rect></_>
    <_>
      <rect>
        5 0 5 2</rect></_>
    <_>
      <rect>
        5 0 5 3</rect></_>
    <_>
      <rect>
        5 0 5 6</rect></_>
    <_>
      <rect>
        5 1 2 6</rect></_>
    <_>
      <rect>
        5 2 2 2</rect></_>
    <_>
      <rect>
        5 2 5 6</rect></_>
    <_>
      <rect>
        5 4 4 5</rect></_>
    <_>
      <rect>
        5 5 3 4</rect></_>
    <_>
      <rect>
        5 6 3 2</rect></_>
    <_>
      <rect>
        5 6 3 3</rect></_>
    <_>
      <rect>
        5 6 4 1</rect></_>
    <_>
      <rect>
        5 6 4 2</rect></_>
    <_>
      <rect>
        5 7 3 2</rect></_>
    <_>
      <rect>
        5 8 4 2</rect></_>
    <_>
      <rect>
        5 10 1 1</rect></_>
    <_>
      <rect>
        5 13 5 2</rect></_>
    <_>
      <rect>
        5 14 4 2</rect></_>
    <_>
      <rect>
        5 14 5 2</rect></_>
    <_>
      <rect>
        5 17 3 1</rect></_>
    <_>
      <rect>
        6 0 3 3</rect></_>
    <_>
      <rect>
        6 5 3 3</rect></_>
    <_>
      <rect>
        6 5 3 4</rect></_>
    <_>
      <rect>
        6 6 3 3</rect></_>
    <_>
      <rect>
        6 7 1 2</rect></_>
    <_>
      <rect>
        6 7 3 2</rect></_>
    <_>
      <rect>
        6 8 3 1</rect></_>
    <_>
      <rect>
        6 9 3 1</rect></_>
    <_>
      <rect>
        6 10 1 1</rect></_>
    <_>
      <rect>
        6 11 3 3</rect></_>
    <_>
      <rect>
        6 12 1 1</rect></_>
    <_>
      <rect>
        6 13 1 1</rect></_>
    <_>
      <rect>
        6 14 4 2</rect></_>
    <_>
      <rect>
        7 0 2 2</rect></_>
    <_>
      <rect>
        7 1 2 6</rect></_>
    <_>
      <rect>
        7 3 3 5</rect></_>
    <_>
      <rect>
        7 4 1 4</rect></_>
    <_>
      <rect>
        7 4 2 4</rect></_>
    <_>
      <rect>
        7 5 1 1</rect></_>
    <_>
      <rect>
        7 5 2 3</rect></_>
    <_>
      <rect>
        7 6 1 1</rect></_>
    <_>
      <rect>
        7 6 2 3</rect></_>
    <_>
      <rect>
        7 7 2 2</rect></_>
    <_>
      <rect>
        7 8 2 2</rect></_>
    <_>
      <rect>
        7 11 2 3</rect></_>
    <_>
      <rect>
        7 11 3 3</rect></_>
    <_>
      <rect>
        7 17 4 1</rect></_>
    <_>
      <rect>
        8 0 4 4</rect></_>
    <_>
      <rect>
        8 1 4 5</rect></_>
    <_>
      <rect>
        8 1 4 6</rect></_>
    <_>
      <rect>
        8 4 2 4</rect></_>
    <_>
      <rect>
        8 5 1 3</rect></_>
    <_>
      <rect>
        8 5 4 2</rect></_>
    <_>
      <rect>
        8 6 1 1</rect></_>
    <_>
      <rect>
        8 6 2 3</rect></_>
    <_>
      <rect>
        8 7 1 1</rect></_>
    <_>
      <rect>
        8 7 1 2</rect></_>
    <_>
      <rect>
        8 8 1 1</rect></_>
    <_>
      <rect>
        8 8 4 2</rect></_>
    <_>
      <rect>
        8 9 1 1</rect></_>
    <_>
      <rect>
        8 11 3 3</rect></_>
    <_>
      <rect>
        8 14 4 2</rect></_>
    <_>
      <rect>
        9 0 2 1</rect></_>
    <_>
      <rect>
        9 0 2 6</rect></_>
    <_>
      <rect>
        9 0 3 1</rect></_>
    <_>
      <rect>
        9 0 3 2</rect></_>
    <_>
      <rect>
        9 0 3 4</rect></_>
    <_>
      <rect>
        9 1 2 6</rect></_>
    <_>
      <rect>
        9 4 1 4</rect></_>
    <_>
      <rect>
        9 8 1 1</rect></_>
    <_>
      <rect>
        9 8 3 4</rect></_>
    <_>
      <rect>
        9 9 1 1</rect></_>
    <_>
      <rect>
        9 10 1 1</rect></_>
    <_>
      <rect>
        9 11 1 1</rect></_>
    <_>
      <rect>
        9 17 3 1</rect></_>
    <_>
      <rect>
        10 0 3 2</rect></_>
    <_>
      <rect>
        10 2 2 4</rect></_>
    <_>
      <rect>
        10 5 1 1</rect></_>
    <_>
      <rect>
        10 7 1 1</rect></_>
    <_>
      <rect>
        10 12 1 1</rect></_>
    <_>
      <rect>
        10 13 3 2</rect></_>
    <_>
      <rect>
        10 14 3 2</rect></_>
    <_>
      <rect>
        11 0 3 2</rect></_>
    <_>
      <rect>
        11 0 3 6</rect></_>
    <_>
      <rect>
        11 1 3 3</rect></_>
    <_>
      <rect>
        11 1 3 4</rect></_>
    <_>
      <rect>
        11 1 3 6</rect></_>
    <_>
      <rect>
        11 5 1 2</rect></_>
    <_>
      <rect>
        11 5 3 5</rect></_>
    <_>
      <rect>
        11 8 1 1</rect></_>
    <_>
      <rect>
        11 8 3 4</rect></_>
    <_>
      <rect>
        11 9 3 2</rect></_>
    <_>
      <rect>
        11 17 2 1</rect></_>
    <_>
      <rect>
        11 17 3 1</rect></_>
    <_>
      <rect>
        12 0 2 1</rect></_>
    <_>
      <rect>
        12 7 1 1</rect></_>
    <_>
      <rect>
        12 8 1 1</rect></_>
    <_>
      <rect>
        12 14 2 2</rect></_>
    <_>
      <rect>
        13 1 2 1</rect></_>
    <_>
      <rect>
        13 2 2 1</rect></_>
    <_>
      <rect>
        13 2 2 6</rect></_>
    <_>
      <rect>
        13 5 2 5</rect></_>
    <_>
      <rect>
        13 8 2 3</rect></_>
    <_>
      <rect>
        14 0 2 4</rect></_>
    <_>
      <rect>
        14 0 2 6</rect></_>
    <_>
      <rect>
        14 1 2 4</rect></_>
    <_>
      <rect>
        14 2 2 5</rect></_>
    <_>
      <rect>
        14 3 2 5</rect></_>
    <_>
      <rect>
        14 4 2 3</rect></_>
    <_>
      <rect>
        14 6 2 4</rect></_>
    <_>
      <rect>
        14 8 2 3</rect></_>
    <_>
      <rect>
        14 8 2 4</rect></_>
    <_>
      <rect>
        14 10 2 3</rect></_>
    <_>
      <rect>
        14 11 2 3</rect></_>
    <_>
      <rect>
        14 12 2 2</rect></_>
    <_>
      <rect>
        14 14 2 2</rect></_>
    <_>
      <rect>
        15 17 1 1</rect></_>
    <_>
      <rect>
        16 0 1 5</rect></_>
    <_>
      <rect>
        17 1 1 2</rect></_>
    <_>
      <rect>
        17 4 1 2</rect></_>
    <_>
      <rect>
        17 5 1 2</rect></_>
    <_>
      <rect>
        17 8 1 3</rect></_>
    <_>
      <rect>
        17 10 1 2</rect></_>
    <_>
      <rect>
        17 14 1 2</rect></_>
    <_>
      <rect>
        17 17 1 1</rect></_></features></cascade>
</opencv_storage>
