<?xml version="1.0"?>
<opencv_storage>
<!-- Created using Computer Vision System Toolbox(tm) for MATLAB(R) -->
<!-- Version 8.6.0.267246 (R2015b) -->
<!-- Compatible with OpenCV 2.4 -->
<cascade>
  <stageType>BOOST</stageType>
  <featureType>LBP</featureType>
  <height>20</height>
  <width>20</width>
  <stageParams>
    <boostType>GAB</boostType>
    <minHitRate>9.9900001287460327e-01</minHitRate>
    <maxFalseAlarm>1.0000000149011612e-01</maxFalseAlarm>
    <weightTrimRate>9.4999999999999996e-01</weightTrimRate>
    <maxDepth>1</maxDepth>
    <maxWeakCount>100</maxWeakCount></stageParams>
  <featureParams>
    <maxCatCount>256</maxCatCount>
    <featSize>1</featSize></featureParams>
  <stageNum>9</stageNum>
  <stages>
    <!-- stage 0 -->
    <_>
      <maxWeakCount>6</maxWeakCount>
      <stageThreshold>-1.0412688255310059e+00</stageThreshold>
      <weakClassifiers>
        <_>
          <internalNodes>
            0 -1 59 -1 -13402317 -805306369 -13369549 -855642625
            -13369473 -1996518145 -1</internalNodes>
          <leafValues>
            -8.6859780550003052e-01 7.4493366479873657e-01</leafValues></_>
        <_>
          <internalNodes>
            0 -1 4 -513 -134217729 -8833 -14680193 -134219777 2004876799
            1442825471 2000622911</internalNodes>
          <leafValues>
            -9.2202836275100708e-01 5.5217814445495605e-01</leafValues></_>
        <_>
          <internalNodes>
            0 -1 64 -524289 -147652745 -262145 -248316109 -855683585
            -570433665 -855667507 -4465463</internalNodes>
          <leafValues>
            -7.4825757741928101e-01 6.0597771406173706e-01</leafValues></_>
        <_>
          <internalNodes>
            0 -1 56 -269484033 -1073741825 -524289 834371519 -1880186898
            -1879588865 -68173825 201310207</internalNodes>
          <leafValues>
            -8.7306565046310425e-01 4.8946362733840942e-01</leafValues></_>
        <_>
          <internalNodes>
            0 -1 75 -278008009 -9322697 -20545 -34078889 -856944705
            -16777225 -319959041 -419463305</internalNodes>
          <leafValues>
            -6.7863553762435913e-01 5.0407886505126953e-01</leafValues></_>
        <_>
          <internalNodes>
            0 -1 25 -260 -513 -268 -4456451 -521 -134217729 -35588
            1999836660</internalNodes>
          <leafValues>
            -8.8318580389022827e-01 3.9239528775215149e-01</leafValues></_></weakClassifiers></_>
    <!-- stage 1 -->
    <_>
      <maxWeakCount>9</maxWeakCount>
      <stageThreshold>-1.1179547309875488e+00</stageThreshold>
      <weakClassifiers>
        <_>
          <internalNodes>
            0 -1 60 -269484033 -109971593 -524289 -214830285 -857878529
            -277622785 -302002433 -274433</internalNodes>
          <leafValues>
            -8.5231363773345947e-01 5.5889010429382324e-01</leafValues></_>
        <_>
          <internalNodes>
            0 -1 65 -1075891435 -1073790977 -2049 -1073741827 -2097155
            -1074003969 -268435980 -1359315212</internalNodes>
          <leafValues>
            -8.2141566276550293e-01 4.0863049030303955e-01</leafValues></_>
        <_>
          <internalNodes>
            0 -1 30 -33554465 -8913065 -1 -143163585 -573047297
            -143296649 100484351 -167811073</internalNodes>
          <leafValues>
            -7.0987462997436523e-01 4.4169896841049194e-01</leafValues></_>
        <_>
          <internalNodes>
            0 -1 96 1464554908 515346373 -144703650 1006627738
            -536870929 -285279234 -16777553 -1360003409</internalNodes>
          <leafValues>
            -6.9062072038650513e-01 4.0912035107612610e-01</leafValues></_>
        <_>
          <internalNodes>
            0 -1 72 -270086202 -269553697 -269816092 -269486081
            -286793777 -50331649 -805904385 -454692619</internalNodes>
          <leafValues>
            -6.9333100318908691e-01 3.9886581897735596e-01</leafValues></_>
        <_>
          <internalNodes>
            0 -1 83 -1342230746 -428491945 -138 -285737097 -84006537
            788516723 -465573130 -453514155</internalNodes>
          <leafValues>
            -6.9805425405502319e-01 3.5880681872367859e-01</leafValues></_>
        <_>
          <internalNodes>
            0 -1 32 1023402470 519728895 -302131052 -538968065 991842793
            1039101943 486414107 -67108865</internalNodes>
          <leafValues>
            -7.0065671205520630e-01 3.3976060152053833e-01</leafValues></_>
        <_>
          <internalNodes>
            0 -1 94 -1371836789 1325038831 2144304631 -29398113 -68
            -3252053 -2490369 -595787780</internalNodes>
          <leafValues>
            -6.0795205831527710e-01 4.0316587686538696e-01</leafValues></_>
        <_>
          <internalNodes>
            0 -1 23 -869410 -8720402 -10961997 -11665414 -652358
            -1026762 -8560661 -11108569</internalNodes>
          <leafValues>
            -6.5948778390884399e-01 3.6704775691032410e-01</leafValues></_></weakClassifiers></_>
    <!-- stage 2 -->
    <_>
      <maxWeakCount>11</maxWeakCount>
      <stageThreshold>-8.1161612272262573e-01</stageThreshold>
      <weakClassifiers>
        <_>
          <internalNodes>
            0 -1 73 -570425473 -9191561 -8388609 -6226113 -1929392643
            -8195 -855798529 -262405</internalNodes>
          <leafValues>
            -7.6850187778472900e-01 4.1791045665740967e-01</leafValues></_>
        <_>
          <internalNodes>
            0 -1 51 -805306369 -214728905 -301993985 -215747037
            1308092415 -364906689 -302004996 -603983873</internalNodes>
          <leafValues>
            -6.5870976448059082e-01 3.7388101220130920e-01</leafValues></_>
        <_>
          <internalNodes>
            0 -1 14 -147521 2138406679 -8737 2147450751 268402679
            2012182391 369098751 1073737727</internalNodes>
          <leafValues>
            -8.4748721122741699e-01 2.9096719622612000e-01</leafValues></_>
        <_>
          <internalNodes>
            0 -1 67 -285249937 -286261641 -25165825 -17302657 -4227233
            2130706299 -423886857 -218630153</internalNodes>
          <leafValues>
            -6.5536350011825562e-01 3.5785210132598877e-01</leafValues></_>
        <_>
          <internalNodes>
            0 -1 80 -1413545986 -1426129474 -1090519057 586940383
            -1346379785 184532991 -201326593 578551551</internalNodes>
          <leafValues>
            -8.9572578668594360e-01 2.3911903798580170e-01</leafValues></_>
        <_>
          <internalNodes>
            0 -1 27 -16778486 1073741435 -294650083 -1111490627
            2142240543 -4194509 -113246642 -260835565</internalNodes>
          <leafValues>
            -6.2011754512786865e-01 3.2771930098533630e-01</leafValues></_>
        <_>
          <internalNodes>
            0 -1 92 -2756100 -1090717192 -34275330 -1091197452 -16921348
            -1359479043 -318906772 749600510</internalNodes>
          <leafValues>
            -7.9710811376571655e-01 2.6186114549636841e-01</leafValues></_>
        <_>
          <internalNodes>
            0 -1 68 -713605908 470688234 -364990950 940498990 1073552584
            536870143 -1082155021 -570687667</internalNodes>
          <leafValues>
            -6.9759398698806763e-01 2.6372435688972473e-01</leafValues></_>
        <_>
          <internalNodes>
            0 -1 74 -126353609 858996535 -1147146305 -1121783894
            1291806205 1811415039 -855686067 -1594527885</internalNodes>
          <leafValues>
            -7.2090750932693481e-01 2.7532702684402466e-01</leafValues></_>
        <_>
          <internalNodes>
            0 -1 37 -17043776 -17041429 -330531077 -335616080 -152902944
            -320606574 -578402309 -2067598222</internalNodes>
          <leafValues>
            -6.6010576486587524e-01 2.8091207146644592e-01</leafValues></_>
        <_>
          <internalNodes>
            0 -1 87 -1073747201 779805694 -208218138 -1091117574
            2111523703 -3938401 -33602444 -1761673218</internalNodes>
          <leafValues>
            -6.3500523567199707e-01 2.8106588125228882e-01</leafValues></_></weakClassifiers></_>
    <!-- stage 3 -->
    <_>
      <maxWeakCount>20</maxWeakCount>
      <stageThreshold>-6.2342303991317749e-01</stageThreshold>
      <weakClassifiers>
        <_>
          <internalNodes>
            0 -1 52 -1904873713 -538495209 -1659563687 -1222208490
            -319950881 -964696587 -1448506667 -441320511</internalNodes>
          <leafValues>
            -8.0103147029876709e-01 5.6061640381813049e-02</leafValues></_>
        <_>
          <internalNodes>
            0 -1 86 -742392833 -908701219 847434038 -162575972 983269223
            814383240 -1993757754 -138675202</internalNodes>
          <leafValues>
            -4.8715493083000183e-01 3.6504700779914856e-01</leafValues></_>
        <_>
          <internalNodes>
            0 -1 10 -53048610 -774081312 -57513339 -677550318 666042515
            -333273613 1373243327 -8954078</internalNodes>
          <leafValues>
            -5.6131398677825928e-01 3.1065085530281067e-01</leafValues></_>
        <_>
          <internalNodes>
            0 -1 38 -576197974 -82863739 -817008737 -544530515
            -552092229 -304698207 -1612190324 96588997</internalNodes>
          <leafValues>
            -5.5992019176483154e-01 3.3703324198722839e-01</leafValues></_>
        <_>
          <internalNodes>
            0 -1 102 2032104224 827672966 460432992 993477847 -167978498
            541864076 -498796934 -1359484373</internalNodes>
          <leafValues>
            -5.8832412958145142e-01 2.8808790445327759e-01</leafValues></_>
        <_>
          <internalNodes>
            0 -1 54 -1098336342 1499137051 -619259413 -211652050
            85703580 -1330869334 2078934080 -619942786</internalNodes>
          <leafValues>
            -4.5452985167503357e-01 3.7923616170883179e-01</leafValues></_>
        <_>
          <internalNodes>
            0 -1 18 -872095600 -422325396 273863499 -609028196
            1377579174 -1202700928 282740359 -707172526</internalNodes>
          <leafValues>
            -5.9412664175033569e-01 2.8416901826858521e-01</leafValues></_>
        <_>
          <internalNodes>
            0 -1 55 960180354 2033764678 336281932 -752901032 1345405138
            -524287447 142739614 -1679656518</internalNodes>
          <leafValues>
            -3.9163234829902649e-01 4.2008268833160400e-01</leafValues></_>
        <_>
          <internalNodes>
            0 -1 76 328142609 915640596 805324241 -1197649637 -905727071
            -2062935421 -1607755120 -2137085840</internalNodes>
          <leafValues>
            -6.7356455326080322e-01 2.4060361087322235e-01</leafValues></_>
        <_>
          <internalNodes>
            0 -1 93 -1794579504 373293061 -2130685736 -681768572
            -517320056 -281865854 721596046 -632152488</internalNodes>
          <leafValues>
            -4.1005074977874756e-01 4.0782031416893005e-01</leafValues></_>
        <_>
          <internalNodes>
            0 -1 42 -1504552800 9083008 -1862252916 1394444764 311046784
            1092296962 2016127948 -70804770</internalNodes>
          <leafValues>
            -6.8884730339050293e-01 2.2386883199214935e-01</leafValues></_>
        <_>
          <internalNodes>
            0 -1 49 2062930018 -23780526 39667163 1054634693 -1865379134
            -90855231 -1885240325 -793496582</internalNodes>
          <leafValues>
            -4.8562130331993103e-01 3.5924240946769714e-01</leafValues></_>
        <_>
          <internalNodes>
            0 -1 100 1564474312 -1454776448 1494368589 -1275141792
            838921946 -293597181 -858459216 -2002007706</internalNodes>
          <leafValues>
            -5.3723746538162231e-01 2.9960495233535767e-01</leafValues></_>
        <_>
          <internalNodes>
            0 -1 71 1794941512 -1925349104 -1995390914 -921487341
            -896944148 -1431287423 -1467972696 -2117637710</internalNodes>
          <leafValues>
            -5.8742040395736694e-01 2.9724499583244324e-01</leafValues></_>
        <_>
          <internalNodes>
            0 -1 77 -433962958 -363312484 1393023 1463884178 -125064488
            -645692896 -888954629 388699280</internalNodes>
          <leafValues>
            -4.5504698157310486e-01 3.6509886384010315e-01</leafValues></_>
        <_>
          <internalNodes>
            0 -1 84 1969811066 438249971 -829498344 -1922232183
            -548519989 983854218 -280720822 -75846886</internalNodes>
          <leafValues>
            -4.7146719694137573e-01 3.3546406030654907e-01</leafValues></_>
        <_>
          <internalNodes>
            0 -1 28 -268635279 -884162439 -2121819770 -1832889938
            -1836967138 1262781454 -70377549 525400895</internalNodes>
          <leafValues>
            -5.1097720861434937e-01 3.0812013149261475e-01</leafValues></_>
        <_>
          <internalNodes>
            0 -1 108 -666916864 -1446477500 -2124283630 -1811017599
            -938560563 -1539014078 -1939875314 -1903452773</internalNodes>
          <leafValues>
            -4.9563404917716980e-01 3.3906930685043335e-01</leafValues></_>
        <_>
          <internalNodes>
            0 -1 66 -2128830457 -2138504137 -1996170489 -188690415
            421110587 1151442946 -922582888 -44590157</internalNodes>
          <leafValues>
            -6.1067098379135132e-01 2.7340891957283020e-01</leafValues></_>
        <_>
          <internalNodes>
            0 -1 78 -27790336 -924499616 622320189 -57732920 -1165459334
            69908506 -628918535 -1796050763</internalNodes>
          <leafValues>
            -4.9641719460487366e-01 3.6659997701644897e-01</leafValues></_></weakClassifiers></_>
    <!-- stage 4 -->
    <_>
      <maxWeakCount>17</maxWeakCount>
      <stageThreshold>-3.4911072254180908e-01</stageThreshold>
      <weakClassifiers>
        <_>
          <internalNodes>
            0 -1 47 -34078723 1999863671 -770 -147161281 -34120195
            2000682879 -1593849603 -805327411</internalNodes>
          <leafValues>
            -4.6964687108993530e-01 5.0389713048934937e-01</leafValues></_>
        <_>
          <internalNodes>
            0 -1 81 -1459252907 -1119603361 16842753 -1199252434
            -2058279120 -133168000 50332613 -636872409</internalNodes>
          <leafValues>
            -5.4364907741546631e-01 3.4817740321159363e-01</leafValues></_>
        <_>
          <internalNodes>
            0 -1 21 -203255378 -190564824 1593193314 2113371382
            252629710 -888479828 895160846 -817132981</internalNodes>
          <leafValues>
            -3.5867926478385925e-01 5.1503115892410278e-01</leafValues></_>
        <_>
          <internalNodes>
            0 -1 8 -900808506 1225976028 -2145799072 -581917604
            -2146688991 -2142764854 -2130702013 -982093734</internalNodes>
          <leafValues>
            -5.7422065734863281e-01 3.6797857284545898e-01</leafValues></_>
        <_>
          <internalNodes>
            0 -1 12 -2029641142 -985632690 1342177471 -783646340
            -405626823 -830438223 1086325891 -640981177</internalNodes>
          <leafValues>
            -5.6408220529556274e-01 3.2787266373634338e-01</leafValues></_>
        <_>
          <internalNodes>
            0 -1 109 -157603109 -1112093072 -1099423779 -714618862
            -462520202 1683865596 -632615297 -277881101</internalNodes>
          <leafValues>
            -3.1705003976821899e-01 6.4703398942947388e-01</leafValues></_>
        <_>
          <internalNodes>
            0 -1 103 1547992864 75387969 -1189967706 605280484 405307657
            172261412 -1963079215 -1472081687</internalNodes>
          <leafValues>
            -6.2177050113677979e-01 3.3493205904960632e-01</leafValues></_>
        <_>
          <internalNodes>
            0 -1 34 -213726753 1471033240 -272843846 -249103390
            762988492 91684825 99980534 -609470470</internalNodes>
          <leafValues>
            -4.4116088747978210e-01 4.7718703746795654e-01</leafValues></_>
        <_>
          <internalNodes>
            0 -1 48 -786388274 -248594653 -809789743 -245203548
            -1218539607 -2038497419 -990075170 -1693790948</internalNodes>
          <leafValues>
            -2.9971927404403687e-01 6.2970739603042603e-01</leafValues></_>
        <_>
          <internalNodes>
            0 -1 106 -590958381 2009827010 1002365894 1046163327
            -1090889483 -610318722 -1850606647 -1954996433</internalNodes>
          <leafValues>
            -3.3493122458457947e-01 5.6208664178848267e-01</leafValues></_>
        <_>
          <internalNodes>
            0 -1 13 1070442827 -536871145 -1611779673 -906945633
            332990247 2130698076 -1761648100 -52658327</internalNodes>
          <leafValues>
            -4.2081490159034729e-01 4.6699675917625427e-01</leafValues></_>
        <_>
          <internalNodes>
            0 -1 99 734357039 -1076161888 -1963089181 -680614668
            2070709935 1995603960 -1097453969 -982138249</internalNodes>
          <leafValues>
            -3.8015857338905334e-01 5.1024973392486572e-01</leafValues></_>
        <_>
          <internalNodes>
            0 -1 114 -33575295 -407728926 -1112704711 1470026967
            -622620982 1190649849 -625666516 -982845767</internalNodes>
          <leafValues>
            -2.9880601167678833e-01 6.1307561397552490e-01</leafValues></_>
        <_>
          <internalNodes>
            0 -1 95 1532973666 -1035851693 1074582226 1519264064
            -1341091149 1259651683 -1459453301 -2008602166</internalNodes>
          <leafValues>
            -4.8154675960540771e-01 3.9295893907546997e-01</leafValues></_>
        <_>
          <internalNodes>
            0 -1 91 -448715829 -1560280954 0 -246152890 -1869200510
            -754647038 -2130627831 -1584772351</internalNodes>
          <leafValues>
            -5.8446383476257324e-01 3.4354633092880249e-01</leafValues></_>
        <_>
          <internalNodes>
            0 -1 20 -934686072 -1723121336 -250598372 1385730977
            -503277275 1082392608 1459824688 -1625386697</internalNodes>
          <leafValues>
            -4.8342430591583252e-01 4.1591155529022217e-01</leafValues></_>
        <_>
          <internalNodes>
            0 -1 43 290197648 1905263513 1091852697 -1927708662
            2067962413 -1720647608 16778956 -1715042168</internalNodes>
          <leafValues>
            -4.2888671159744263e-01 4.6651551127433777e-01</leafValues></_></weakClassifiers></_>
    <!-- stage 5 -->
    <_>
      <maxWeakCount>14</maxWeakCount>
      <stageThreshold>6.5333448350429535e-02</stageThreshold>
      <weakClassifiers>
        <_>
          <internalNodes>
            0 -1 3 -2130458872 609750400 134480844 104926721 -2139027180
            2110472 -1333777388 1696687168</internalNodes>
          <leafValues>
            -8.4286540746688843e-01 6.3197749853134155e-01</leafValues></_>
        <_>
          <internalNodes>
            0 -1 33 1571230566 -320278580 -35760599 298777796 310318763
            -954466435 397249159 -581402497</internalNodes>
          <leafValues>
            -3.1177356839179993e-01 6.8776416778564453e-01</leafValues></_>
        <_>
          <internalNodes>
            0 -1 112 -77339961 1868671314 1492057096 2036989085
            -729023484 254463358 1487961776 -1014839698</internalNodes>
          <leafValues>
            -3.3040100336074829e-01 7.0142668485641479e-01</leafValues></_>
        <_>
          <internalNodes>
            0 -1 19 -1130699445 920413909 1743648588 295826033 64496619
            -923877925 1551725519 -586285225</internalNodes>
          <leafValues>
            -3.4310415387153625e-01 6.2811386585235596e-01</leafValues></_>
        <_>
          <internalNodes>
            0 -1 97 -2142721430 973415056 25956375 643367377 -2003730385
            -935231480 1074884632 -783564661</internalNodes>
          <leafValues>
            -5.0907403230667114e-01 4.7154402732849121e-01</leafValues></_>
        <_>
          <internalNodes>
            0 -1 90 -12426950 -148124752 -496442047 -142821535
            1716875189 -916465898 2012594682 -656879659</internalNodes>
          <leafValues>
            -4.1795864701271057e-01 6.0225439071655273e-01</leafValues></_>
        <_>
          <internalNodes>
            0 -1 89 -629058784 268439696 4280474 2110004244 -1182762856
            849870978 33988618 243696665</internalNodes>
          <leafValues>
            -5.2957463264465332e-01 4.7977033257484436e-01</leafValues></_>
        <_>
          <internalNodes>
            0 -1 88 -1299599578 -382025802 1811694159 -1636243553
            1458345214 -699982220 1040073945 -1316167762</internalNodes>
          <leafValues>
            -4.0716779232025146e-01 6.2147527933120728e-01</leafValues></_>
        <_>
          <internalNodes>
            0 -1 5 -1797742902 -748016212 -1614844775 -943396937
            -1576959811 -268505162 1677434162 -539763159</internalNodes>
          <leafValues>
            -3.9040097594261169e-01 6.4021438360214233e-01</leafValues></_>
        <_>
          <internalNodes>
            0 -1 46 -527450109 1271922753 16875672 294661139 1402025671
            1648885768 -1575839615 -723124157</internalNodes>
          <leafValues>
            -4.7915801405906677e-01 5.2509343624114990e-01</leafValues></_>
        <_>
          <internalNodes>
            0 -1 101 -785165312 559236131 1078333521 -1739515007
            -1053686730 -2041575424 36934280 -1957633182</internalNodes>
          <leafValues>
            -5.8168560266494751e-01 4.8862081766128540e-01</leafValues></_>
        <_>
          <internalNodes>
            0 -1 50 -8388609 -80250889 -536870913 -212336705 -1644191873
            -277354625 -1375745793 -1208004355</internalNodes>
          <leafValues>
            -4.7781434655189514e-01 5.3607976436614990e-01</leafValues></_>
        <_>
          <internalNodes>
            0 -1 11 -378893109 -1079388751 2066912934 -80101647
            -473986000 1630134269 127597493 -142635365</internalNodes>
          <leafValues>
            -3.3546549081802368e-01 7.5525128841400146e-01</leafValues></_>
        <_>
          <internalNodes>
            0 -1 16 -772879651 -13830146 -579916250 2112945975
            -134610057 -4456641 -713616098 -622726</internalNodes>
          <leafValues>
            -4.6998643875122070e-01 5.5318206548690796e-01</leafValues></_></weakClassifiers></_>
    <!-- stage 6 -->
    <_>
      <maxWeakCount>13</maxWeakCount>
      <stageThreshold>3.0578879639506340e-02</stageThreshold>
      <weakClassifiers>
        <_>
          <internalNodes>
            0 -1 39 -1492114416 84475908 -1002438131 838864960
            1107534344 14778368 1476723596 19989515</internalNodes>
          <leafValues>
            -9.3205946683883667e-01 7.0379519462585449e-01</leafValues></_>
        <_>
          <internalNodes>
            0 -1 63 16705 -2130698240 3 1128268112 402921738 1082130432
            1082136616 -1466854719</internalNodes>
          <leafValues>
            -5.1900517940521240e-01 5.3291636705398560e-01</leafValues></_>
        <_>
          <internalNodes>
            0 -1 62 653135988 1354937168 1635425010 1966757088
            1098896330 -1407721649 -2039325477 528185809</internalNodes>
          <leafValues>
            -4.7706541419029236e-01 5.4581290483474731e-01</leafValues></_>
        <_>
          <internalNodes>
            0 -1 29 -623155893 -303219419 605820860 -1154409677
            -273553829 -1087439369 -1032185323 -201375870</internalNodes>
          <leafValues>
            -3.3833020925521851e-01 7.0548099279403687e-01</leafValues></_>
        <_>
          <internalNodes>
            0 -1 26 -861536492 -2105164256 -1363197980 -1322160526
            -578910739 2121659767 -671789397 -1754329378</internalNodes>
          <leafValues>
            -3.7046274542808533e-01 6.6407895088195801e-01</leafValues></_>
        <_>
          <internalNodes>
            0 -1 9 -1991630712 1627389976 1073742363 -1070514110
            -1321181182 1342177288 1091049541 1246178059</internalNodes>
          <leafValues>
            -5.7374787330627441e-01 4.5016735792160034e-01</leafValues></_>
        <_>
          <internalNodes>
            0 -1 24 946711768 -84185119 501670954 1526824878 -656412986
            -1765966396 1748846206 265712753</internalNodes>
          <leafValues>
            -4.7834432125091553e-01 5.4234504699707031e-01</leafValues></_>
        <_>
          <internalNodes>
            0 -1 110 1240200146 995347194 -677241150 479413114 -46817810
            2123654003 -888550848 1328274558</internalNodes>
          <leafValues>
            -4.0823343396186829e-01 6.1361205577850342e-01</leafValues></_>
        <_>
          <internalNodes>
            0 -1 61 269631638 1237385221 285212738 1476722701 571155120
            964691976 318802433 999997454</internalNodes>
          <leafValues>
            -4.9755942821502686e-01 5.4498195648193359e-01</leafValues></_>
        <_>
          <internalNodes>
            0 -1 58 1073745930 1291927700 67113221 -2004090192
            -2071952373 -519553024 -2012953057 1531450123</internalNodes>
          <leafValues>
            -5.9947443008422852e-01 4.7247341275215149e-01</leafValues></_>
        <_>
          <internalNodes>
            0 -1 105 17940519 1346478225 -2143219631 323682756
            -2113363456 -1040187256 536871472 -350846757</internalNodes>
          <leafValues>
            -4.8751115798950195e-01 6.0174500942230225e-01</leafValues></_>
        <_>
          <internalNodes>
            0 -1 53 693268954 889209095 -771713983 -783023992 1772337810
            -1744830336 -2147285752 864920266</internalNodes>
          <leafValues>
            -5.1059567928314209e-01 5.2040928602218628e-01</leafValues></_>
        <_>
          <internalNodes>
            0 -1 7 -2142334334 -2130583552 285360338 -716857336
            538477184 1342177280 -2126446461 1460746484</internalNodes>
          <leafValues>
            -5.7416266202926636e-01 5.0951349735260010e-01</leafValues></_></weakClassifiers></_>
    <!-- stage 7 -->
    <_>
      <maxWeakCount>14</maxWeakCount>
      <stageThreshold>-6.3508236408233643e-01</stageThreshold>
      <weakClassifiers>
        <_>
          <internalNodes>
            0 -1 31 671290380 186714145 8388608 -2012643328 806422016
            753094672 146804745 620298240</internalNodes>
          <leafValues>
            -7.7559608221054077e-01 6.7402058839797974e-01</leafValues></_>
        <_>
          <internalNodes>
            0 -1 115 -13522880 702168992 -1090601364 -59171087
            -974893503 337280383 10831128 1370959087</internalNodes>
          <leafValues>
            -3.3284243941307068e-01 6.2773489952087402e-01</leafValues></_>
        <_>
          <internalNodes>
            0 -1 36 322362065 -1192526172 280767036 959665390 665855107
            -1699797002 -1177276358 -284338987</internalNodes>
          <leafValues>
            -3.3314713835716248e-01 6.8647009134292603e-01</leafValues></_>
        <_>
          <internalNodes>
            0 -1 57 -8388801 1065191677 -3 1069531071 2109685685
            -4735113 486526525 -1472202054</internalNodes>
          <leafValues>
            -4.2921996116638184e-01 5.0717872381210327e-01</leafValues></_>
        <_>
          <internalNodes>
            0 -1 104 -605554482 -497101752 -1560927051 15288723
            -25233282 1039588853 2002452078 1525208397</internalNodes>
          <leafValues>
            -4.1138142347335815e-01 5.5777180194854736e-01</leafValues></_>
        <_>
          <internalNodes>
            0 -1 45 1166313858 1411383305 142606483 1494057106
            -1610575676 436732992 302008479 872646680</internalNodes>
          <leafValues>
            -5.9094345569610596e-01 4.0510103106498718e-01</leafValues></_>
        <_>
          <internalNodes>
            0 -1 79 -179010006 -599722146 2146430759 2099509240
            -2039132934 -426418206 -562598658 -1701686025</internalNodes>
          <leafValues>
            -4.1968870162963867e-01 5.5564618110656738e-01</leafValues></_>
        <_>
          <internalNodes>
            0 -1 107 269599594 1074233347 270041091 -1726824439
            -2146918397 -1543503871 419442961 -1908375256</internalNodes>
          <leafValues>
            -5.1882076263427734e-01 4.7866573929786682e-01</leafValues></_>
        <_>
          <internalNodes>
            0 -1 98 -1256186343 -1577418774 804220733 1787658084
            -1619075133 939360253 -318969878 -991117441</internalNodes>
          <leafValues>
            -4.4766858220100403e-01 5.6760227680206299e-01</leafValues></_>
        <_>
          <internalNodes>
            0 -1 111 -2117541336 -754973808 1410400400 1359151192
            541171952 159432704 67174587 50477738</internalNodes>
          <leafValues>
            -4.8909592628479004e-01 4.8742201924324036e-01</leafValues></_>
        <_>
          <internalNodes>
            0 -1 17 1511725118 -1935130022 2138627707 -1339321068
            -676016817 -276843909 841491146 -674650965</internalNodes>
          <leafValues>
            -4.0303996205329895e-01 6.1654299497604370e-01</leafValues></_>
        <_>
          <internalNodes>
            0 -1 0 -1058302323 1819588211 -1083638564 -1799536652
            1865804862 918253271 385038395 -134238574</internalNodes>
          <leafValues>
            -3.3879089355468750e-01 7.4783843755722046e-01</leafValues></_>
        <_>
          <internalNodes>
            0 -1 69 922407927 -968102136 -512463239 -142777161 645912200
            -648847627 385323583 -1443274946</internalNodes>
          <leafValues>
            -2.6690238714218140e-01 8.4854108095169067e-01</leafValues></_>
        <_>
          <internalNodes>
            0 -1 41 -549485162 2012544890 -67126348 -1111789594
            133681045 -998768835 -556377914 1916993386</internalNodes>
          <leafValues>
            -3.9267933368682861e-01 5.9227836132049561e-01</leafValues></_></weakClassifiers></_>
    <!-- stage 8 -->
    <_>
      <maxWeakCount>13</maxWeakCount>
      <stageThreshold>1.3863818347454071e-01</stageThreshold>
      <weakClassifiers>
        <_>
          <internalNodes>
            0 -1 6 1022820048 -209978701 -16843037 1991769632 -16843167
            -35651661 -823724510 7796546</internalNodes>
          <leafValues>
            -2.4797749519348145e-01 7.2934997081756592e-01</leafValues></_>
        <_>
          <internalNodes>
            0 -1 70 1864519553 -948576399 -319631455 -1657348398
            -709955879 -830562489 1303478015 -319664844</internalNodes>
          <leafValues>
            -3.3064028620719910e-01 5.7714366912841797e-01</leafValues></_>
        <_>
          <internalNodes>
            0 -1 113 -19953950 1782843064 516140600 1647644259
            -993538165 2096553822 91593943 -1048987829</internalNodes>
          <leafValues>
            -3.1550863385200500e-01 6.9983601570129395e-01</leafValues></_>
        <_>
          <internalNodes>
            0 -1 15 -2059271910 37945479 11 1392713993 -267780096 32768
            27282 1934434882</internalNodes>
          <leafValues>
            -4.8467469215393066e-01 4.4290530681610107e-01</leafValues></_>
        <_>
          <internalNodes>
            0 -1 85 866929233 1486929814 -1208045640 -39209131
            -2064149026 -1946230836 905209324 1764743086</internalNodes>
          <leafValues>
            -4.1415876150131226e-01 5.3881722688674927e-01</leafValues></_>
        <_>
          <internalNodes>
            0 -1 2 -250385168 -131729681 1596683665 1861450980
            -291656210 -1861300628 704079274 -1154256191</internalNodes>
          <leafValues>
            -3.4223985671997070e-01 6.8311375379562378e-01</leafValues></_>
        <_>
          <internalNodes>
            0 -1 82 -1006591878 76480642 4210828 -1609285374 -804748639
            75595912 -1040104672 -1131343872</internalNodes>
          <leafValues>
            -6.3933515548706055e-01 3.8723605871200562e-01</leafValues></_>
        <_>
          <internalNodes>
            0 -1 106 26407067 480051417 54559758 499712133 -2130528112
            -2126512128 150999977 1745438860</internalNodes>
          <leafValues>
            -5.1745104789733887e-01 4.9484041333198547e-01</leafValues></_>
        <_>
          <internalNodes>
            0 -1 22 2019505432 -1325334527 318771726 1141927961
            420034062 -2004844544 1241514384 286795792</internalNodes>
          <leafValues>
            -6.0177332162857056e-01 4.1794875264167786e-01</leafValues></_>
        <_>
          <internalNodes>
            0 -1 35 11735700 1612971678 -402991169 -248398300
            -1098989829 1328971612 822005353 1484477432</internalNodes>
          <leafValues>
            -4.6420958638191223e-01 5.5248957872390747e-01</leafValues></_>
        <_>
          <internalNodes>
            0 -1 44 -300138395 1347683541 156307664 -1694494311
            -2097020113 51904514 -653098873 -490683641</internalNodes>
          <leafValues>
            -4.6607509255409241e-01 5.5280047655105591e-01</leafValues></_>
        <_>
          <internalNodes>
            0 -1 40 -656429472 -672186590 1879047894 2113781561
            2147243981 -1855457497 851369079 -1493189276</internalNodes>
          <leafValues>
            -4.3806672096252441e-01 5.6696557998657227e-01</leafValues></_>
        <_>
          <internalNodes>
            0 -1 1 1216175852 -898038538 575221481 -111182374
            -2080482708 -1711978881 1604367225 -1826242807</internalNodes>
          <leafValues>
            -4.5461985468864441e-01 5.5090922117233276e-01</leafValues></_></weakClassifiers></_></stages>
  <features>
    <_>
      <rect>
        0 0 1 6</rect></_>
    <_>
      <rect>
        0 0 2 2</rect></_>
    <_>
      <rect>
        0 0 3 1</rect></_>
    <_>
      <rect>
        0 0 4 6</rect></_>
    <_>
      <rect>
        0 0 6 6</rect></_>
    <_>
      <rect>
        0 1 1 4</rect></_>
    <_>
      <rect>
        0 1 6 2</rect></_>
    <_>
      <rect>
        0 2 1 3</rect></_>
    <_>
      <rect>
        0 3 2 3</rect></_>
    <_>
      <rect>
        0 4 1 5</rect></_>
    <_>
      <rect>
        0 4 2 4</rect></_>
    <_>
      <rect>
        0 5 1 4</rect></_>
    <_>
      <rect>
        0 5 2 4</rect></_>
    <_>
      <rect>
        0 5 2 5</rect></_>
    <_>
      <rect>
        0 5 6 5</rect></_>
    <_>
      <rect>
        0 6 1 4</rect></_>
    <_>
      <rect>
        0 6 2 3</rect></_>
    <_>
      <rect>
        0 7 1 4</rect></_>
    <_>
      <rect>
        0 8 2 4</rect></_>
    <_>
      <rect>
        0 11 2 2</rect></_>
    <_>
      <rect>
        0 12 2 2</rect></_>
    <_>
      <rect>
        0 14 2 2</rect></_>
    <_>
      <rect>
        0 14 3 2</rect></_>
    <_>
      <rect>
        1 0 2 5</rect></_>
    <_>
      <rect>
        1 0 3 1</rect></_>
    <_>
      <rect>
        1 0 5 5</rect></_>
    <_>
      <rect>
        1 1 1 1</rect></_>
    <_>
      <rect>
        1 1 4 2</rect></_>
    <_>
      <rect>
        1 4 2 2</rect></_>
    <_>
      <rect>
        1 5 1 4</rect></_>
    <_>
      <rect>
        1 6 5 3</rect></_>
    <_>
      <rect>
        1 10 6 3</rect></_>
    <_>
      <rect>
        1 13 4 2</rect></_>
    <_>
      <rect>
        1 14 2 2</rect></_>
    <_>
      <rect>
        1 16 3 1</rect></_>
    <_>
      <rect>
        1 17 2 1</rect></_>
    <_>
      <rect>
        1 17 6 1</rect></_>
    <_>
      <rect>
        2 0 6 2</rect></_>
    <_>
      <rect>
        2 0 6 3</rect></_>
    <_>
      <rect>
        2 0 6 6</rect></_>
    <_>
      <rect>
        2 2 2 1</rect></_>
    <_>
      <rect>
        2 16 2 1</rect></_>
    <_>
      <rect>
        2 16 5 1</rect></_>
    <_>
      <rect>
        3 0 3 1</rect></_>
    <_>
      <rect>
        3 0 3 2</rect></_>
    <_>
      <rect>
        3 0 4 1</rect></_>
    <_>
      <rect>
        3 1 2 2</rect></_>
    <_>
      <rect>
        3 5 4 3</rect></_>
    <_>
      <rect>
        3 17 2 1</rect></_>
    <_>
      <rect>
        4 0 3 2</rect></_>
    <_>
      <rect>
        4 4 4 4</rect></_>
    <_>
      <rect>
        4 7 4 2</rect></_>
    <_>
      <rect>
        4 7 4 3</rect></_>
    <_>
      <rect>
        4 13 2 2</rect></_>
    <_>
      <rect>
        4 14 2 2</rect></_>
    <_>
      <rect>
        5 0 2 1</rect></_>
    <_>
      <rect>
        5 2 5 6</rect></_>
    <_>
      <rect>
        5 3 2 5</rect></_>
    <_>
      <rect>
        5 4 3 4</rect></_>
    <_>
      <rect>
        5 6 3 3</rect></_>
    <_>
      <rect>
        5 6 4 3</rect></_>
    <_>
      <rect>
        5 17 2 1</rect></_>
    <_>
      <rect>
        5 17 4 1</rect></_>
    <_>
      <rect>
        6 4 3 3</rect></_>
    <_>
      <rect>
        6 5 3 3</rect></_>
    <_>
      <rect>
        6 6 1 3</rect></_>
    <_>
      <rect>
        6 9 3 1</rect></_>
    <_>
      <rect>
        6 11 3 1</rect></_>
    <_>
      <rect>
        6 14 4 2</rect></_>
    <_>
      <rect>
        6 17 4 1</rect></_>
    <_>
      <rect>
        7 0 2 2</rect></_>
    <_>
      <rect>
        7 0 4 2</rect></_>
    <_>
      <rect>
        7 2 4 2</rect></_>
    <_>
      <rect>
        7 4 2 4</rect></_>
    <_>
      <rect>
        7 7 2 2</rect></_>
    <_>
      <rect>
        7 7 2 3</rect></_>
    <_>
      <rect>
        7 9 1 1</rect></_>
    <_>
      <rect>
        8 0 4 1</rect></_>
    <_>
      <rect>
        8 1 2 1</rect></_>
    <_>
      <rect>
        8 1 3 1</rect></_>
    <_>
      <rect>
        8 2 4 6</rect></_>
    <_>
      <rect>
        8 3 2 5</rect></_>
    <_>
      <rect>
        8 8 2 2</rect></_>
    <_>
      <rect>
        8 10 1 1</rect></_>
    <_>
      <rect>
        8 14 4 2</rect></_>
    <_>
      <rect>
        8 17 2 1</rect></_>
    <_>
      <rect>
        9 6 1 1</rect></_>
    <_>
      <rect>
        9 7 1 1</rect></_>
    <_>
      <rect>
        9 17 2 1</rect></_>
    <_>
      <rect>
        9 17 3 1</rect></_>
    <_>
      <rect>
        10 1 3 1</rect></_>
    <_>
      <rect>
        10 4 1 4</rect></_>
    <_>
      <rect>
        11 0 3 5</rect></_>
    <_>
      <rect>
        11 17 3 1</rect></_>
    <_>
      <rect>
        12 9 1 1</rect></_>
    <_>
      <rect>
        13 1 2 2</rect></_>
    <_>
      <rect>
        13 6 2 4</rect></_>
    <_>
      <rect>
        13 13 2 2</rect></_>
    <_>
      <rect>
        13 16 1 1</rect></_>
    <_>
      <rect>
        14 0 2 2</rect></_>
    <_>
      <rect>
        14 2 2 4</rect></_>
    <_>
      <rect>
        14 3 2 4</rect></_>
    <_>
      <rect>
        14 7 2 4</rect></_>
    <_>
      <rect>
        14 9 2 3</rect></_>
    <_>
      <rect>
        14 11 2 3</rect></_>
    <_>
      <rect>
        14 12 2 2</rect></_>
    <_>
      <rect>
        14 14 2 2</rect></_>
    <_>
      <rect>
        15 2 1 3</rect></_>
    <_>
      <rect>
        16 5 1 4</rect></_>
    <_>
      <rect>
        17 0 1 3</rect></_>
    <_>
      <rect>
        17 0 1 5</rect></_>
    <_>
      <rect>
        17 3 1 2</rect></_>
    <_>
      <rect>
        17 3 1 3</rect></_>
    <_>
      <rect>
        17 5 1 2</rect></_>
    <_>
      <rect>
        17 6 1 4</rect></_>
    <_>
      <rect>
        17 9 1 2</rect></_></features></cascade>
</opencv_storage>
