<?xml version="1.0"?>
<opencv_storage>
<!-- Created using Computer Vision System Toolbox(tm) for MATLAB(R) -->
<!-- Version 9.2.0.538062 (R2017a) -->
<!-- Compatible with OpenCV 3.1 -->
<cascade>
  <stageType>BOOST</stageType>
  <featureType>LBP</featureType>
  <height>20</height>
  <width>20</width>
  <stageParams>
    <boostType>GAB</boostType>
    <minHitRate>9.9900001287460327e-01</minHitRate>
    <maxFalseAlarm>1.0000000149011612e-01</maxFalseAlarm>
    <weightTrimRate>9.4999999999999996e-01</weightTrimRate>
    <maxDepth>1</maxDepth>
    <maxWeakCount>100</maxWeakCount></stageParams>
  <featureParams>
    <maxCatCount>256</maxCatCount>
    <featSize>1</featSize></featureParams>
  <stageNum>9</stageNum>
  <stages>
    <!-- stage 0 -->
    <_>
      <maxWeakCount>2</maxWeakCount>
      <stageThreshold>-8.4480203688144684e-02</stageThreshold>
      <weakClassifiers>
        <_>
          <internalNodes>
            0 -1 33 -134217729 -252641281 -65 -218890333 -922759681
            -33566721 -28881 -65</internalNodes>
          <leafValues>
            -9.9304103851318359e-01 9.1199296712875366e-01</leafValues></_>
        <_>
          <internalNodes>
            0 -1 17 -8421513 1073741823 -1 -1073741825 2139062133 -1
            -98308 -285409284</internalNodes>
          <leafValues>
            -9.8151504993438721e-01 9.0856081247329712e-01</leafValues></_></weakClassifiers></_>
    <!-- stage 1 -->
    <_>
      <maxWeakCount>5</maxWeakCount>
      <stageThreshold>-1.3497149944305420e+00</stageThreshold>
      <weakClassifiers>
        <_>
          <internalNodes>
            0 -1 28 -524297 -8913097 -16385 -16577 -50466817 -524289
            -1996493057 -20737</internalNodes>
          <leafValues>
            -9.7938013076782227e-01 7.9945796728134155e-01</leafValues></_>
        <_>
          <internalNodes>
            0 -1 10 -1 -13107401 -4113 -81 -34083329 -143130625
            -318775041 -1</internalNodes>
          <leafValues>
            -9.5486259460449219e-01 8.1336021423339844e-01</leafValues></_>
        <_>
          <internalNodes>
            0 -1 70 658198515 1862171647 -1 -16842753 -32769 -1
            -268468225 -285933705</internalNodes>
          <leafValues>
            -9.3253040313720703e-01 7.9877132177352905e-01</leafValues></_>
        <_>
          <internalNodes>
            0 -1 29 -268458059 -9177289 -302010369 -403193929 -50467593
            -528385 -855642377 -1</internalNodes>
          <leafValues>
            -9.4674932956695557e-01 7.4774426221847534e-01</leafValues></_>
        <_>
          <internalNodes>
            0 -1 42 -675913 -17797257 -16385 -51036297 -1929523729 -1
            -285331714 -147457</internalNodes>
          <leafValues>
            -9.1205906867980957e-01 7.6931393146514893e-01</leafValues></_></weakClassifiers></_>
    <!-- stage 2 -->
    <_>
      <maxWeakCount>5</maxWeakCount>
      <stageThreshold>-1.5528193712234497e+00</stageThreshold>
      <weakClassifiers>
        <_>
          <internalNodes>
            0 -1 35 -704643073 -168558721 -1 -262213 -705176065 -4206849
            -1057297 -8193</internalNodes>
          <leafValues>
            -9.3596702814102173e-01 8.2737928628921509e-01</leafValues></_>
        <_>
          <internalNodes>
            0 -1 18 -524289 -135790729 -160323 -144197833 -1997017345
            -168296449 -352343297 -1027</internalNodes>
          <leafValues>
            -9.5055598020553589e-01 6.3186299800872803e-01</leafValues></_>
        <_>
          <internalNodes>
            0 -1 24 -1 -147587073 -1075839058 -135005261 -574754817
            -704647169 -268578865 -268439553</internalNodes>
          <leafValues>
            -8.3116483688354492e-01 6.4775061607360840e-01</leafValues></_>
        <_>
          <internalNodes>
            0 -1 4 -524289 -1078071305 -1 -1078478085 -144310411
            2138308607 -109321992 -276829957</internalNodes>
          <leafValues>
            -7.8961980342864990e-01 6.6744154691696167e-01</leafValues></_>
        <_>
          <internalNodes>
            0 -1 25 -268452073 -15220937 -268435969 -338690117 -20971531
            -1048585 -352403786 -487065609</internalNodes>
          <leafValues>
            -8.7610638141632080e-01 4.9742695689201355e-01</leafValues></_></weakClassifiers></_>
    <!-- stage 3 -->
    <_>
      <maxWeakCount>11</maxWeakCount>
      <stageThreshold>-2.1099135875701904e+00</stageThreshold>
      <weakClassifiers>
        <_>
          <internalNodes>
            0 -1 50 -168296449 -13369345 -33554433 -12599361 -33567233
            -1057 -8961 -4177</internalNodes>
          <leafValues>
            -8.9298552274703979e-01 4.9777886271476746e-01</leafValues></_>
        <_>
          <internalNodes>
            0 -1 30 -1 -9175169 -33951825 -1049170 -135790593 -168305665
            -33558786 -1025</internalNodes>
          <leafValues>
            -7.5322914123535156e-01 5.3269845247268677e-01</leafValues></_>
        <_>
          <internalNodes>
            0 -1 3 -2097153 -536940545 -196740 -84082721 -32940
            -1342185481 -134219820 -671614985</internalNodes>
          <leafValues>
            -6.4073812961578369e-01 5.4448288679122925e-01</leafValues></_>
        <_>
          <internalNodes>
            0 -1 63 -11010049 -1360003585 -174096386 -16777729
            -1074036873 -805585921 -134219787 -2098180</internalNodes>
          <leafValues>
            -6.8690884113311768e-01 5.5455595254898071e-01</leafValues></_>
        <_>
          <internalNodes>
            0 -1 51 -1092763659 -655497 -2113537 -33702025 -1962939011
            -229385 -1963081729 -166025</internalNodes>
          <leafValues>
            -7.1260017156600952e-01 4.6908333897590637e-01</leafValues></_>
        <_>
          <internalNodes>
            0 -1 12 -1076675836 -847523489 -575414817 -16795681
            -570757242 -5335317 -543440906 -189792302</internalNodes>
          <leafValues>
            -6.6322332620620728e-01 4.6581736207008362e-01</leafValues></_>
        <_>
          <internalNodes>
            0 -1 34 1040152447 1071611903 -36702721 2128599195 -68158857
            -83179077 -117703428 -1090584586</internalNodes>
          <leafValues>
            -7.2166901826858521e-01 4.4573959708213806e-01</leafValues></_>
        <_>
          <internalNodes>
            0 -1 16 -67895345 -214437473 -577164305 -142812773
            -1124614657 -1310226417 -1413502241 -8687105</internalNodes>
          <leafValues>
            -7.0716321468353271e-01 3.8244006037712097e-01</leafValues></_>
        <_>
          <internalNodes>
            0 -1 27 -245385323 -268549641 -757769857 -18706178
            -1684799686 1207163027 -1146512485 -260676139</internalNodes>
          <leafValues>
            -5.4855293035507202e-01 4.9496257305145264e-01</leafValues></_>
        <_>
          <internalNodes>
            0 -1 6 408911607 1067340244 -642457604 2088518484
            -1681148940 1541265636 1006132016 -1073976160</internalNodes>
          <leafValues>
            -6.5998309850692749e-01 4.2156472802162170e-01</leafValues></_>
        <_>
          <internalNodes>
            0 -1 44 -1182826635 -1342711065 -67377925 -268994565
            -16797835 -271588689 -51791116 -1090724228</internalNodes>
          <leafValues>
            -8.6942768096923828e-01 2.4962228536605835e-01</leafValues></_></weakClassifiers></_>
    <!-- stage 4 -->
    <_>
      <maxWeakCount>11</maxWeakCount>
      <stageThreshold>-1.6841909885406494e+00</stageThreshold>
      <weakClassifiers>
        <_>
          <internalNodes>
            0 -1 75 -202411813 -67948077 -2130554381 -6340515
            -1727352437 -1809006463 -1580557409 -6628422</internalNodes>
          <leafValues>
            -8.4776884317398071e-01 5.6825572252273560e-01</leafValues></_>
        <_>
          <internalNodes>
            0 -1 54 -1340739113 -1882630639 -988760077 -568786657
            -57954833 -2088136568 -737500429 -85201931</internalNodes>
          <leafValues>
            -7.2052639722824097e-01 5.4509252309799194e-01</leafValues></_>
        <_>
          <internalNodes>
            0 -1 22 -1109427201 -1061069874 -1944184355 -138294119
            -54605317 -106198023 -559109125 -18953793</internalNodes>
          <leafValues>
            -8.3214557170867920e-01 4.5370492339134216e-01</leafValues></_>
        <_>
          <internalNodes>
            0 -1 37 -1312089857 -2130632506 -1055882031 -701021133
            -1450450943 -914243448 -1950174790 -1166130703</internalNodes>
          <leafValues>
            -7.6138442754745483e-01 5.0359117984771729e-01</leafValues></_>
        <_>
          <internalNodes>
            0 -1 55 -779095586 693633306 813729047 -142359138 1937946882
            -167198590 -251021052 -883754712</internalNodes>
          <leafValues>
            -7.4129074811935425e-01 4.6597716212272644e-01</leafValues></_>
        <_>
          <internalNodes>
            0 -1 38 -1454415147 -915341110 -2134843005 -788328311
            -1601462076 -1073741807 -2004825963 -610627435</internalNodes>
          <leafValues>
            -6.3421720266342163e-01 5.1130604743957520e-01</leafValues></_>
        <_>
          <internalNodes>
            0 -1 80 -134269513 -272701697 -1477449729 1602201582
            -134252545 -838860801 2012739575 -352396169</internalNodes>
          <leafValues>
            -4.9332538247108459e-01 6.9589179754257202e-01</leafValues></_>
        <_>
          <internalNodes>
            0 -1 36 1388311499 806426907 -1886484660 1891863110
            1802625503 -1189371596 -469225317 -104271609</internalNodes>
          <leafValues>
            -8.1129831075668335e-01 4.5213609933853149e-01</leafValues></_>
        <_>
          <internalNodes>
            0 -1 69 -1726754565 -1567715178 -805256798 -102809542
            -1073657339 -2094497536 -1694244141 -1223151455</internalNodes>
          <leafValues>
            -5.9815359115600586e-01 5.5571615695953369e-01</leafValues></_>
        <_>
          <internalNodes>
            0 -1 49 -76680361 -605797978 -2146889133 -396098631
            1621198265 -2146958974 -1039414625 -1110559857</internalNodes>
          <leafValues>
            -6.8624025583267212e-01 4.7982424497604370e-01</leafValues></_>
        <_>
          <internalNodes>
            0 -1 23 -1818541158 -1857306409 1090671219 1443352579
            -1878982494 -2012704704 537105074 -1142248773</internalNodes>
          <leafValues>
            -5.5481076240539551e-01 6.3453251123428345e-01</leafValues></_></weakClassifiers></_>
    <!-- stage 5 -->
    <_>
      <maxWeakCount>14</maxWeakCount>
      <stageThreshold>-1.2685970067977905e+00</stageThreshold>
      <weakClassifiers>
        <_>
          <internalNodes>
            0 -1 15 -1966728241 -900873827 -1979417838 -2134109756
            93207503 -2008809110 -1148912613 -1782258733</internalNodes>
          <leafValues>
            -7.2802740335464478e-01 4.7364279627799988e-01</leafValues></_>
        <_>
          <internalNodes>
            0 -1 72 -167042565 1670394009 -1861222053 1447690323
            -1601511413 -736063360 -1072496252 -2145934764</internalNodes>
          <leafValues>
            -6.2176990509033203e-01 5.1859539747238159e-01</leafValues></_>
        <_>
          <internalNodes>
            0 -1 56 -1718389313 -2000584633 1090584767 -1535671811
            -997687201 -1878458342 295360177 -671215368</internalNodes>
          <leafValues>
            -6.4560556411743164e-01 4.6669450402259827e-01</leafValues></_>
        <_>
          <internalNodes>
            0 -1 2 -1865006217 1380024322 16842837 -1792966651
            -1609894357 -2121662336 1624116154 -74821109</internalNodes>
          <leafValues>
            -6.1982768774032593e-01 4.5536306500434875e-01</leafValues></_>
        <_>
          <internalNodes>
            0 -1 65 -1273785377 -1056960372 1048585 1929584645
            -1853708233 1073840139 1124827415 -903708663</internalNodes>
          <leafValues>
            -6.0105460882186890e-01 4.5594742894172668e-01</leafValues></_>
        <_>
          <internalNodes>
            0 -1 46 -779914277 -1845276445 -511377005 -2146062145
            -1308237771 -1891532414 63947856 -1744031367</internalNodes>
          <leafValues>
            -5.8439707756042480e-01 4.5210734009742737e-01</leafValues></_>
        <_>
          <internalNodes>
            0 -1 11 294749056 -255848448 -1877933987 -679443984
            -2122145636 -1342177280 119253 -939493192</internalNodes>
          <leafValues>
            -6.1489069461822510e-01 4.3120226263999939e-01</leafValues></_>
        <_>
          <internalNodes>
            0 -1 79 54731329 -2095972344 1082277889 -721338367
            -2130525791 -1018658816 1879195779 -1907621887</internalNodes>
          <leafValues>
            -6.9863188266754150e-01 4.0915191173553467e-01</leafValues></_>
        <_>
          <internalNodes>
            0 -1 43 -649310113 289538057 1073742281 1330381000 41953297
            -2147450752 268603560 -1683324725</internalNodes>
          <leafValues>
            -7.7182585000991821e-01 3.4740763902664185e-01</leafValues></_>
        <_>
          <internalNodes>
            0 -1 21 -1783409933 -247852334 -536768375 805337609
            -333201403 -1834286390 13172967 -1680963360</internalNodes>
          <leafValues>
            -5.5710893869400024e-01 4.2594596743583679e-01</leafValues></_>
        <_>
          <internalNodes>
            0 -1 71 -1056882471 -804749231 419446805 437469187
            -2147450733 -2139092864 -2130673534 -1189052287</internalNodes>
          <leafValues>
            -5.9094101190567017e-01 4.3203923106193542e-01</leafValues></_>
        <_>
          <internalNodes>
            0 -1 82 797189403 -130722895 1543853329 -449560549 474581702
            -1725923320 675287041 -1104264531</internalNodes>
          <leafValues>
            -5.7367986440658569e-01 4.9121755361557007e-01</leafValues></_>
        <_>
          <internalNodes>
            0 -1 68 922766708 596705382 -2108681959 1854243080
            -1937127347 58753200 -2137996621 -1717370727</internalNodes>
          <leafValues>
            -5.9327322244644165e-01 3.9753678441047668e-01</leafValues></_>
        <_>
          <internalNodes>
            0 -1 60 -553653331 -134414348 -1342242835 1878654573
            2147483486 -805372043 1994192055 -2108810697</internalNodes>
          <leafValues>
            -4.1256117820739746e-01 5.6180113554000854e-01</leafValues></_></weakClassifiers></_>
    <!-- stage 6 -->
    <_>
      <maxWeakCount>13</maxWeakCount>
      <stageThreshold>-7.4311375617980957e-01</stageThreshold>
      <weakClassifiers>
        <_>
          <internalNodes>
            0 -1 20 202188327 60489796 16842863 -1991700416 301099
            -1450700768 604017418 -1913056140</internalNodes>
          <leafValues>
            -7.4006187915802002e-01 6.5890979766845703e-01</leafValues></_>
        <_>
          <internalNodes>
            0 -1 58 -142610433 1060372415 -18 -1078726734 -168309387
            804782071 -524 -536871698</internalNodes>
          <leafValues>
            -5.1694530248641968e-01 6.4264541864395142e-01</leafValues></_>
        <_>
          <internalNodes>
            0 -1 7 -1323875901 -1005895644 8487113 -787677052
            -2147426139 -2130182016 -2147418079 -1444259598</internalNodes>
          <leafValues>
            -6.2318128347396851e-01 5.6963253021240234e-01</leafValues></_>
        <_>
          <internalNodes>
            0 -1 47 -783975679 -2130247679 4194305 1090601024 402796675
            1073741824 536924170 -1018855147</internalNodes>
          <leafValues>
            -6.3060152530670166e-01 5.5171912908554077e-01</leafValues></_>
        <_>
          <internalNodes>
            0 -1 77 184684932 -586133230 268764176 2064717833 34850891
            268435456 419467331 -93654999</internalNodes>
          <leafValues>
            -5.8516877889633179e-01 5.0874435901641846e-01</leafValues></_>
        <_>
          <internalNodes>
            0 -1 45 -1735835363 -687652747 793 -696254395 1629495449
            -2130640768 329343626 -1576894456</internalNodes>
          <leafValues>
            -5.9267270565032959e-01 4.3261322379112244e-01</leafValues></_>
        <_>
          <internalNodes>
            0 -1 9 1358960821 8626791 16883857 -2130177847 1560281219
            -1780342642 -1605329664 -587069312</internalNodes>
          <leafValues>
            -7.5284677743911743e-01 3.5848659276962280e-01</leafValues></_>
        <_>
          <internalNodes>
            0 -1 19 -586086159 -61800311 273682711 -200277740 672260
            -1735917568 8921220 -1541206015</internalNodes>
          <leafValues>
            -6.3003051280975342e-01 4.3935635685920715e-01</leafValues></_>
        <_>
          <internalNodes>
            0 -1 14 -1554627071 1662222614 353476646 1812168718
            1610891312 1879049353 302170700 -1913840800</internalNodes>
          <leafValues>
            -5.9640258550643921e-01 4.3689695000648499e-01</leafValues></_>
        <_>
          <internalNodes>
            0 -1 62 -1827409761 -2113470325 0 -1023197141 -2138406909
            -2138374133 25870913 -2096593844</internalNodes>
          <leafValues>
            -6.5062856674194336e-01 3.7375172972679138e-01</leafValues></_>
        <_>
          <internalNodes>
            0 -1 5 80387 1360331264 16896 -1072885247 578849037
            671621760 -1971312496 416616532</internalNodes>
          <leafValues>
            -7.7042192220687866e-01 3.6255106329917908e-01</leafValues></_>
        <_>
          <internalNodes>
            0 -1 83 -1744156901 1327108115 -1055420333 -1731702456
            33825160 -2013230846 -1073503661 -364805567</internalNodes>
          <leafValues>
            -5.0276082754135132e-01 5.1685541868209839e-01</leafValues></_>
        <_>
          <internalNodes>
            0 -1 74 -1832906544 1342308353 16842817 -2109734909 131232
            1342242816 8841 -614842080</internalNodes>
          <leafValues>
            -7.4145096540451050e-01 3.2852301001548767e-01</leafValues></_></weakClassifiers></_>
    <!-- stage 7 -->
    <_>
      <maxWeakCount>12</maxWeakCount>
      <stageThreshold>-7.4653106927871704e-01</stageThreshold>
      <weakClassifiers>
        <_>
          <internalNodes>
            0 -1 39 67437589 -1802985211 83952644 1292477440 328226
            805568768 201663526 -291698680</internalNodes>
          <leafValues>
            -7.3659199476242065e-01 7.2745853662490845e-01</leafValues></_>
        <_>
          <internalNodes>
            0 -1 67 805371973 1090519057 285233425 1175666753 268480520
            -1610053496 35721 -2138865533</internalNodes>
          <leafValues>
            -6.8304729461669922e-01 5.6912171840667725e-01</leafValues></_>
        <_>
          <internalNodes>
            0 -1 1 8638867 -1861631999 0 269697033 -2130546046
            -2147450880 25174531 -1190117373</internalNodes>
          <leafValues>
            -5.9046828746795654e-01 6.8823695182800293e-01</leafValues></_>
        <_>
          <internalNodes>
            0 -1 53 268521939 -1056899071 268501264 -1068957692
            285507738 -1417117696 -2147450744 -796573693</internalNodes>
          <leafValues>
            -5.8178907632827759e-01 6.1041271686553955e-01</leafValues></_>
        <_>
          <internalNodes>
            0 -1 0 -2071768989 1435632084 114817 -2122285050 -1979676661
            58720257 1090180 1523584002</internalNodes>
          <leafValues>
            -6.4460504055023193e-01 4.3957284092903137e-01</leafValues></_>
        <_>
          <internalNodes>
            0 -1 13 -1673288653 -706263382 242888316 1074466401
            129312527 -1929609345 -1537601561 -946590228</internalNodes>
          <leafValues>
            -4.9354064464569092e-01 6.2368702888488770e-01</leafValues></_>
        <_>
          <internalNodes>
            0 -1 59 -779497177 -2130509822 1342177501 -988872304 131088
            -1451229176 -1577016670 -271974266</internalNodes>
          <leafValues>
            -5.7610255479812622e-01 5.2979308366775513e-01</leafValues></_>
        <_>
          <internalNodes>
            0 -1 41 830558460 101810176 65549 268566797 8388667
            302120961 98693 -2083323896</internalNodes>
          <leafValues>
            -6.9659554958343506e-01 4.1159641742706299e-01</leafValues></_>
        <_>
          <internalNodes>
            0 -1 48 29387253 -1958477439 257 -1853603297 578875650
            -2139095040 570589211 -368181070</internalNodes>
          <leafValues>
            -8.3265966176986694e-01 3.8543584942817688e-01</leafValues></_>
        <_>
          <internalNodes>
            0 -1 77 -1844166511 -241663693 270319647 -787480271
            1074855973 403312769 25231425 470175793</internalNodes>
          <leafValues>
            -5.5858838558197021e-01 5.0083267688751221e-01</leafValues></_>
        <_>
          <internalNodes>
            0 -1 66 1090528721 155189256 1057041 1074855953 -2147450711
            -1744795520 -671055228 -2067562481</internalNodes>
          <leafValues>
            -5.1523655652999878e-01 5.0650227069854736e-01</leafValues></_>
        <_>
          <internalNodes>
            0 -1 31 5289747 268435602 1358991370 1157628032 16779908
            151093890 -1728047070 -58563930</internalNodes>
          <leafValues>
            -7.8352648019790649e-01 3.8119423389434814e-01</leafValues></_></weakClassifiers></_>
    <!-- stage 8 -->
    <_>
      <maxWeakCount>13</maxWeakCount>
      <stageThreshold>-8.5607701539993286e-01</stageThreshold>
      <weakClassifiers>
        <_>
          <internalNodes>
            0 -1 32 1715733525 1078657028 67436549 -1052180464 134809122
            150995020 -1409187710 -825261054</internalNodes>
          <leafValues>
            -7.2992229461669922e-01 7.8095155954360962e-01</leafValues></_>
        <_>
          <internalNodes>
            0 -1 48 -1064004925 139772057 570425374 1226170383
            -1342009344 136 303106176 1376231682</internalNodes>
          <leafValues>
            -7.2933214902877808e-01 5.8127850294113159e-01</leafValues></_>
        <_>
          <internalNodes>
            0 -1 8 -1874800429 17891330 16826497 268534209 -2138939388
            -1610055678 28802 -754802526</internalNodes>
          <leafValues>
            -5.9571003913879395e-01 5.5210977792739868e-01</leafValues></_>
        <_>
          <internalNodes>
            0 -1 61 1434540827 -2113929215 -1073741822 1212416000
            402686210 131072 -2138533630 -2147450878</internalNodes>
          <leafValues>
            -7.8094655275344849e-01 4.3760901689529419e-01</leafValues></_>
        <_>
          <internalNodes>
            0 -1 73 -921681004 1637060625 -1996487597 1392574464
            134250673 -2097020928 41943187 940179585</internalNodes>
          <leafValues>
            -5.9937423467636108e-01 5.3178471326828003e-01</leafValues></_>
        <_>
          <internalNodes>
            0 -1 76 -901773089 -2147221488 16389 -687292341 -2147483511
            524288 4194312 642891778</internalNodes>
          <leafValues>
            -6.1452949047088623e-01 4.3982973694801331e-01</leafValues></_>
        <_>
          <internalNodes>
            0 -1 81 74254501 87091765 -1140695483 -110006940 -2068280190
            -919200396 1223599744 -1227471499</internalNodes>
          <leafValues>
            -4.5300716161727905e-01 6.2186002731323242e-01</leafValues></_>
        <_>
          <internalNodes>
            0 -1 64 1925695627 1229095045 -2147483632 -2143289341
            -1593830653 0 -2013134437 -213680126</internalNodes>
          <leafValues>
            -6.2996697425842285e-01 4.4005712866783142e-01</leafValues></_>
        <_>
          <internalNodes>
            0 -1 78 -1559500341 -2146267055 -1962872576 -687680239
            144900507 -973077760 -1929378687 637878272</internalNodes>
          <leafValues>
            -6.1172473430633545e-01 4.4898578524589539e-01</leafValues></_>
        <_>
          <internalNodes>
            0 -1 57 277581893 -1064796127 4096 -804577088 268468490
            33619968 1342345217 -1606246271</internalNodes>
          <leafValues>
            -6.9964349269866943e-01 3.7593993544578552e-01</leafValues></_>
        <_>
          <internalNodes>
            0 -1 40 -272817881 -927449890 -1346426051 139013500
            -1355024612 7605620 1052079598 -2092724095</internalNodes>
          <leafValues>
            -3.9450678229331970e-01 7.0710480213165283e-01</leafValues></_>
        <_>
          <internalNodes>
            0 -1 52 -268439553 1651703799 -268435521 1739980598
            -940087459 -436732041 -855650419 -185073921</internalNodes>
          <leafValues>
            -4.6965193748474121e-01 6.1702686548233032e-01</leafValues></_>
        <_>
          <internalNodes>
            0 -1 26 -1875834779 -753336311 1083207731 945226257
            -2147352565 -1073151989 160989329 1531871232</internalNodes>
          <leafValues>
            -5.2074086666107178e-01 5.1649135351181030e-01</leafValues></_></weakClassifiers></_></stages>
  <features>
    <_>
      <rect>
        0 0 2 3</rect></_>
    <_>
      <rect>
        0 0 2 5</rect></_>
    <_>
      <rect>
        0 0 3 4</rect></_>
    <_>
      <rect>
        0 0 4 2</rect></_>
    <_>
      <rect>
        0 0 5 6</rect></_>
    <_>
      <rect>
        0 0 6 5</rect></_>
    <_>
      <rect>
        0 1 2 2</rect></_>
    <_>
      <rect>
        0 1 2 3</rect></_>
    <_>
      <rect>
        0 2 3 3</rect></_>
    <_>
      <rect>
        0 5 6 5</rect></_>
    <_>
      <rect>
        0 6 6 3</rect></_>
    <_>
      <rect>
        0 9 3 3</rect></_>
    <_>
      <rect>
        0 10 4 1</rect></_>
    <_>
      <rect>
        0 12 1 2</rect></_>
    <_>
      <rect>
        0 13 1 2</rect></_>
    <_>
      <rect>
        1 2 5 5</rect></_>
    <_>
      <rect>
        1 2 6 6</rect></_>
    <_>
      <rect>
        1 3 3 4</rect></_>
    <_>
      <rect>
        1 4 6 5</rect></_>
    <_>
      <rect>
        2 0 3 1</rect></_>
    <_>
      <rect>
        2 0 6 5</rect></_>
    <_>
      <rect>
        2 1 1 2</rect></_>
    <_>
      <rect>
        2 1 6 6</rect></_>
    <_>
      <rect>
        2 6 1 1</rect></_>
    <_>
      <rect>
        2 7 6 2</rect></_>
    <_>
      <rect>
        2 8 4 3</rect></_>
    <_>
      <rect>
        2 13 1 2</rect></_>
    <_>
      <rect>
        3 0 3 1</rect></_>
    <_>
      <rect>
        3 2 4 6</rect></_>
    <_>
      <rect>
        3 5 4 4</rect></_>
    <_>
      <rect>
        3 7 4 2</rect></_>
    <_>
      <rect>
        3 8 4 4</rect></_>
    <_>
      <rect>
        4 0 5 5</rect></_>
    <_>
      <rect>
        4 4 5 4</rect></_>
    <_>
      <rect>
        4 8 2 1</rect></_>
    <_>
      <rect>
        5 1 4 5</rect></_>
    <_>
      <rect>
        5 2 5 6</rect></_>
    <_>
      <rect>
        5 8 1 1</rect></_>
    <_>
      <rect>
        5 9 1 1</rect></_>
    <_>
      <rect>
        6 1 4 5</rect></_>
    <_>
      <rect>
        6 2 1 2</rect></_>
    <_>
      <rect>
        6 2 2 2</rect></_>
    <_>
      <rect>
        6 4 3 5</rect></_>
    <_>
      <rect>
        6 8 2 1</rect></_>
    <_>
      <rect>
        6 9 1 1</rect></_>
    <_>
      <rect>
        6 9 3 1</rect></_>
    <_>
      <rect>
        7 0 1 3</rect></_>
    <_>
      <rect>
        7 0 2 6</rect></_>
    <_>
      <rect>
        7 1 2 6</rect></_>
    <_>
      <rect>
        7 4 2 4</rect></_>
    <_>
      <rect>
        7 5 2 3</rect></_>
    <_>
      <rect>
        7 5 2 5</rect></_>
    <_>
      <rect>
        7 9 2 1</rect></_>
    <_>
      <rect>
        7 10 3 3</rect></_>
    <_>
      <rect>
        7 13 1 1</rect></_>
    <_>
      <rect>
        8 1 3 2</rect></_>
    <_>
      <rect>
        8 3 1 2</rect></_>
    <_>
      <rect>
        8 6 1 4</rect></_>
    <_>
      <rect>
        8 8 1 1</rect></_>
    <_>
      <rect>
        8 9 1 1</rect></_>
    <_>
      <rect>
        9 0 1 1</rect></_>
    <_>
      <rect>
        9 0 1 2</rect></_>
    <_>
      <rect>
        9 1 1 2</rect></_>
    <_>
      <rect>
        9 5 1 1</rect></_>
    <_>
      <rect>
        9 7 1 2</rect></_>
    <_>
      <rect>
        10 3 1 1</rect></_>
    <_>
      <rect>
        10 11 3 2</rect></_>
    <_>
      <rect>
        10 12 3 1</rect></_>
    <_>
      <rect>
        10 17 3 1</rect></_>
    <_>
      <rect>
        11 5 1 1</rect></_>
    <_>
      <rect>
        11 6 3 4</rect></_>
    <_>
      <rect>
        11 10 2 1</rect></_>
    <_>
      <rect>
        11 11 2 2</rect></_>
    <_>
      <rect>
        13 2 2 1</rect></_>
    <_>
      <rect>
        13 9 1 1</rect></_>
    <_>
      <rect>
        13 10 1 1</rect></_>
    <_>
      <rect>
        13 11 2 3</rect></_>
    <_>
      <rect>
        14 0 2 3</rect></_>
    <_>
      <rect>
        15 3 1 2</rect></_>
    <_>
      <rect>
        15 11 1 3</rect></_>
    <_>
      <rect>
        15 12 1 1</rect></_>
    <_>
      <rect>
        16 1 1 1</rect></_>
    <_>
      <rect>
        17 0 1 3</rect></_>
    <_>
      <rect>
        17 1 1 3</rect></_></features></cascade>
</opencv_storage>
